tree
version=v2
num_class=1
num_tree_per_iteration=1
label_index=0
max_feature_idx=16
objective=regression
feature_names=pickup_longitude pickup_latitude dropoff_longitude dropoff_latitude passenger_count hour day month weekday year jfk_dist ewr_dist lga_dist sol_dist nyc_dist distance bearing
feature_infos=[-1.3445918180193648:-1.2865016167420114] [0.67891299879117495:0.71588806104972613] [-1.3445918180193648:-1.2851141098140801] [0.67891299879117495:0.71678967423677242] [1:9] [0:23] [1:31] [1:6] [0:6] none [1.15385119571495:678.53364126899123] [1.5041268573781852:632.18430873366356] [0.63621202116456399:683.25345917828497] [6.1705021404572555:648.32921563587377] [0.49808308385807848:656.80157342280586] [0:59.816530650936095] [-3.1414026351126827:3.1415926535897931]
tree_sizes=2391 2432 2421 2422 2431 2435 2432 2447 2458 2425 2437 2450 2436 2453 2450 2447 2440 2454 2437 2462 2468 2448 2466 2476 2485 2445 2475 2470 2451 2465 2464 2465 2472 2463 2466 2476 2457 2462 2470 2466 2480 2459 2460 2458 2452 2472 2496 2492 2497 2477 2477 2474 2501 2490 2481 2489 2482 2489 2510 2499 2509 2503 2499 2495 2519 2495 2488 2487 2507 2501 2503 2467 2519 2502 2502 2493 2504 2499 2495 2505 2507 2502 2494 2496 2489 2521 2509 2498 2519 2481 2516 2464 2494 2495 2498 2500 2479 2471 2521 2509 2512 2497 2504 2503 2516 2513 2519 2516 2481 2493 2508 2516 2483 2519 2495 2497 2483 2521 2498 2508 2496 2495 2507 2522 2504 2510 2508 2502 2512 2473 2512 2499 2498 2508 2495 2485 2508 2493 2518 2508 2492 2522 2499 2485 2504 2506 2518 2495 2508 2516 2507 2501 2480 2520 2532 2529 2511 2503 2522 2500 2521 2481 2496 2529 2547 2489 2518 2522 2524 2509 2495 2514 2500 2491 2523 2526 2508 2504 2507 2486 2513 2493 2503 2492 2522 2501 2515 2491 2528 2499 2518 2491 2511 2487 2511 2491 2508 2507 2509 2489 2517 2514 2528 2496 2518 2477 2480 2500 2525 2516 2494 2505 2518 2514 2506 2540 2528 2483 2530 2497 2517 2497 2523 2522 2516 2529 2514 2548 2495 2510 2504 2486 2484 2501 2512 2538 2517 2523 2513 2523 2506 2506 2487 2510 2483 2496 2525 2502 2520 2487 2508 2520

Tree=0
num_leaves=31
num_cat=0
split_feature=15 15 15 15 15 15 2 15 15 15 15 12 12 15 15 12 15 11 12 8 12 2 15 15 5 15 5 15 12 15
split_gain=1.10568e+06 200519 154789 33984.1 32887.4 28354.2 12918.5 8800.33 8231.25 5778.18 5672.92 5313.98 5311.52 4856.49 4591.26 3384.42 2384.99 1814.58 2462.52 1719.19 1672.8 1272.82 1178.37 1059.69 954.294 784.834 775.864 757.132 751.626 694.054
threshold=8.1427545059010225 3.2186934191225873 14.245418027008137 1.7407463092226541 25.143049396920727 5.5974558720640539 -1.2920341341695691 17.803064869303931 0.053810985912090888 11.770770022822624 1.0878571964080568 13.076899902432148 32.311566637689502 4.36101734753088 2.439959505895803 27.687241258198991 6.8303765125984404 31.744889360118044 16.316131076241827 3.5000000000000004 24.509600021832231 -1.2918279389221696 8.9469669910158629 3.6139867382644666 4.5000000000000009 9.1941767610956777 18.500000000000004 2.0081397261552634 26.79779417541527 2.7969565371313574
decision_type=6 4 6 6 6 6 6 6 6 6 6 6 6 6 6 6 6 6 6 4 6 6 6 6 6 6 4 6 6 6
left_child=1 3 9 8 6 12 19 20 15 11 -10 22 13 21 27 17 -7 -1 -19 -4 -8 -3 -2 -23 -11 -13 -24 -5 -22 -16
right_child=2 5 4 14 -6 16 7 -9 10 24 -12 25 -14 -15 29 -17 -18 18 -20 -21 28 23 26 -25 -26 -27 -28 -29 -30 -31
leaf_value=12.413879856599515 13.572184647302915 13.392629862559978 15.945129852129167 12.584543137088096 17.315963249040788 13.129342595821029 14.130885666082655 14.732527672292655 12.428184227619317 13.699296518795833 12.519844647957745 13.409888891936198 13.937629858288313 12.968954549298736 12.686669502415404 13.732629852129167 13.281796527100747 12.658463194105172 13.511067351831143 15.270129852129166 14.814360621359935 12.780561974728453 13.840892563993574 12.861814475074684 13.985489329350742 13.553388781126342 13.661487876820525 12.637539736753448 14.381493488492803 12.747084264883958
leaf_count=16 73 10 16 1176 12 597 86 367 3256 36 3506 166 12 1021 984 14 450 18 16 23 13 707 236 929 153 224 81 1581 44 921
internal_value=0 -2.57697 25.6248 -4.64451 38.844 3.7977 37.712 36.3706 -6.06593 17.9716 -6.17277 16.7695 2.07314 1.97869 -2.5633 5.2219 8.2104 1.37365 5.50683 55.2541 29.7157 0.915841 19.3798 0.847077 22.9326 14.1592 20.2141 -3.38826 33.9174 -1.36939
internal_count=16744 15214 1530 11488 561 3726 549 510 6826 969 6762 780 2679 2667 4662 64 1047 50 34 39 143 1646 390 1636 189 390 317 2757 57 1905
shrinkage=1


Tree=1
num_leaves=31
num_cat=0
split_feature=10 10 12 14 3 10 3 3 14 12 1 14 12 2 12 3 14 1 14 2 2 2 14 1 12 2 12 12 3 1
split_gain=537751 179445 157068 47937.8 41330.2 32317.2 25938.6 22343.9 23308.4 18213.7 15651.6 16603.9 13348.5 13031.2 12194 11399.6 9368.11 8028.59 7550.49 7005.48 15709.8 6342.09 5993.43 5636.74 5530.8 6944.27 7246.14 5521.1 5157.33 4913.64
threshold=26.37966552375228 39.463083086305112 32.52553397123193 13.817391685855176 0.71248237735821929 15.620118747325584 0.71026652746273256 0.71061114050778873 5.0860095751764796 8.9988119400966493 0.7107157361596016 5.2706172603256141 19.607454499728508 -1.2918320668218592 11.5646735413877 0.71013247059136064 18.150371568996231 0.71181009563054232 7.8657587179662132 -1.2907742592368796 -1.2895498709257158 -1.2905774516323227 12.354555672239739 0.71153802043567727 15.12216444995806 -1.2908287874601991 16.956956568010579 19.369885567407064 0.71012461426614493 0.7103839395772914
decision_type=6 6 6 6 6 6 6 6 6 6 6 6 6 6 6 6 6 6 6 6 6 6 6 6 6 6 6 6 6 6
left_child=5 3 4 18 7 -1 15 8 -3 -5 11 -9 -7 -12 -15 -4 19 -6 -2 -11 28 24 -10 -23 -16 -26 -27 -18 -21 -20
right_child=1 2 6 9 17 12 -8 10 22 16 13 -13 -14 14 21 -17 27 -19 29 20 -22 23 -24 -25 25 26 -28 -29 -30 -31
leaf_value=0.64461817368865015 0.0089694458014902573 -0.10809645199607149 0.96005800471586333 0.25555427652348345 0.75009993480730663 0.76773365040620167 4.596885903676351 -0.10452406958695881 0.42637248289176988 0.94794338482121621 1.4921432733535767 0.36828547635062736 1.8125791168212892 0.67462074445052589 -0.27016292389483915 2.6129518438268593 0.99874775742646316 0.096926690492111806 -0.027989324121292503 0.95037849019555487 0.97623900452045476 0.30874214274946743 1.4853750841958184 -0.14175381647956956 -0.16536907357712816 -0.11009732409050382 0.20590148460317961 1.8821776791622764 0.01569414865059246 0.39763443578161639
leaf_count=80 372 389 17 169 158 33 12 490 293 144 12 299 415 44 1126 27 256 67 84 17 99 135 14 143 10477 635 254 19 112 352
internal_value=0 -1.0226 -2.13236 8.94887 -2.336 31.4062 50.7262 -2.54743 2.97911 14.3553 -2.82995 1.49304 34.7123 -3.09588 -3.12673 39.4867 16.7699 11.112 3.48893 13.4982 10.0493 -3.18399 9.49332 1.54024 -3.28913 -3.07968 -0.396239 21.1957 2.77739 6.31267
internal_count=16744 16216 14592 1624 14536 528 56 14311 696 816 13615 789 448 12826 12814 44 647 225 808 372 228 12770 307 278 12492 11366 889 275 129 436
shrinkage=0.05


Tree=2
num_leaves=31
num_cat=0
split_feature=15 15 15 15 15 15 2 15 15 1 15 12 15 15 15 12 15 8 8 12 3 2 3 15 2 3 3 12 1 12
split_gain=910840 173428 125640 32429.7 28470.1 20625.9 10447.3 7069.99 7032.45 5923.37 4929.72 4849.08 4749.45 4428.18 4389.94 3966 1973.69 1956.7 1505.38 1282.13 1246.95 1240.18 1096.67 961.192 820.813 815.778 757.607 701.895 693.486 657.533
threshold=8.1427545059010225 2.7969565371313574 14.245418027008137 5.0713519442655421 25.143049396920727 1.6807477055377296 -1.2920341341695691 0.053810985912090888 17.803064869303931 0.71149414485671814 11.770770022822624 32.311566637689502 3.6139867382644666 6.3435527299758574 1.0878571964080568 13.076899902432148 2.0984604145229824 3.5000000000000004 3.5000000000000004 24.509600021832231 0.71258214603055636 -1.2918228123370712 0.71175666596117271 9.0536656160319957 -1.291838391829448 0.71146911114247147 0.71131980767385883 8.9112255765818329 0.71049499339474764 26.79779417541527
decision_type=6 4 6 6 6 6 6 6 6 6 6 6 6 6 6 6 6 6 4 6 6 6 6 6 6 6 6 6 4 6
left_child=1 5 10 11 6 7 18 9 19 17 15 12 21 -5 -9 23 -7 -1 -4 -8 -12 -3 -17 -2 -15 -14 -25 -26 -19 -21
right_child=2 3 4 13 -6 16 8 14 -10 -11 20 -13 25 24 -16 22 -18 28 -20 29 -22 -23 -24 26 27 -27 -28 -29 -30 -31
leaf_value=-0.29290304013660978 0.73202062765757248 0.54198280289769174 2.8669843912124637 0.25527852261843892 4.1676245927810669 -0.17857090974309425 1.2260270312775015 -0.33006044523538769 1.7612922413797403 1.1480143390595914 1.1263903053137507 1.0983685845678504 0.13307064523823206 0.88246107816696162 -0.24753970237621536 0.71473635982294548 -0.10850854048194564 0.64492938995361326 2.2353376886119012 1.8444166696988622 0.83874972416804394 -0.016662366253500236 0.54144886797421599 0.79886224477187451 0.58035389690688166 0.056691123224321127 0.97123564596359546 0.40817978635283708 0.080946489175160716 1.4395301233638418
leaf_count=28 90 10 16 759 12 1844 86 3256 367 14 137 11 1073 10 3192 244 2211 10 23 13 52 1621 146 92 66 519 208 578 12 44
internal_value=0 -2.33892 23.2577 2.75236 35.1674 -4.57789 34.1142 -5.68038 32.9078 4.77861 16.3627 1.00618 0.934642 6.74894 -5.78419 15.2523 -2.80738 -0.312253 49.8895 26.9588 20.945 -0.264744 12.9973 17.5074 8.65614 2.16341 18.3675 8.5165 6.74605 30.6375
internal_count=16744 15214 1530 4647 561 10567 549 6512 510 64 969 3234 3223 1413 6448 780 4055 50 39 143 189 1631 390 390 654 1592 300 644 22 57
shrinkage=0.05


Tree=3
num_leaves=31
num_cat=0
split_feature=10 10 10 3 11 10 3 1 8 3 1 3 1 1 5 1 10 3 10 11 3 3 3 11 3 1 3 1 11 10
split_gain=438071 146430 115408 35815.9 31268.2 26253 22981.6 11284.2 9806.46 9066.95 12961 13316.2 12834.7 6833.66 5948.57 5695.25 5687.79 5105.19 7584.84 4842.12 4746.64 4522.77 4222.12 4159.13 3981.47 9318.26 4115.29 9171.52 4344.84 3779.27
threshold=26.37966552375228 39.463083086305112 54.347164576519013 0.71248237735821929 38.743601118646545 15.620118747325584 0.71037391943368988 0.71091310968589017 3.5000000000000004 0.71061949617570885 0.7107157361596016 0.71117876000462543 0.71111903861718051 0.71165926084430298 6.5000000000000009 0.71084320170727555 43.214492758575972 0.71056333676622185 36.548884882292619 54.424334481185518 0.71328565332201443 0.71026988970360871 0.7110115134881686 40.914334422242888 0.71077442557212422 0.71125379456833848 0.71211253086183446 0.71165679742029464 46.166873819430045 11.184328154374398
decision_type=6 6 6 6 6 6 6 6 4 6 6 6 6 6 6 6 6 6 6 6 6 6 6 6 6 6 6 6 6 6
left_child=5 4 3 6 7 29 16 22 -4 12 11 -11 -8 20 -6 -16 -3 -17 -19 -7 -5 -9 -2 -20 25 -12 28 -28 -26 -1
right_child=1 2 8 13 14 19 9 21 -10 10 24 -13 -14 -15 15 17 -18 18 23 -21 -22 -23 -24 -25 26 -27 27 -29 -30 -31
leaf_value=0.27211056554859336 0.010102568696745164 0.47163558143106377 3.4474641098695642 0.62271237974324511 0.35132433215231568 1.6321903150567274 -0.13119313305322552 0.7046911683347491 1.8908984727859499 -0.10987454548624492 -0.13531640745158777 0.30602740203729595 0.3257468271522862 0.16547178952808839 1.243734353496915 1.069860693765065 1.7171684098243714 0.29551421334217126 0.19183526697258158 1.1561325915398137 1.4728331415276781 0.25687740131328674 0.52632756150046056 0.75392423042115597 -0.15304410685024006 0.30419502261891429 0.29506072682624096 -0.18236800122991381 0.60371188991948177 0.9629385080602435
leaf_count=44 503 110 17 121 173 386 355 108 25 447 441 338 271 83 42 63 10 154 36 62 19 118 43 384 11750 166 167 253 19 36
internal_value=0 -0.92297 -1.92546 -2.07656 8.08462 28.3464 -2.2723 3.47492 50.4187 -2.3887 -2.56022 1.38403 1.33239 10.4992 12.2615 13.5953 11.5086 12.8516 11.9137 31.3261 14.7617 9.41754 1.01515 14.1149 -2.80219 -0.302411 -2.92667 0.149335 -3.03645 11.6597
internal_count=16744 16216 14592 14550 1624 528 14327 772 42 14207 13581 785 626 223 852 679 120 637 574 448 140 226 546 420 12796 607 12189 420 11769 80
shrinkage=0.05


Tree=4
num_leaves=31
num_cat=0
split_feature=15 15 15 15 15 15 2 15 15 1 15 15 15 16 15 12 12 15 2 15 3 12 3 15 16 2 3 12 3 15
split_gain=754370 150087 101952 26647.7 25468.5 18633.8 8431.35 6048.68 5618.98 5310.67 3999.72 3999.43 3996.88 3619.33 3412.36 3410.36 3226.07 1773.71 1227.24 1197.25 1029.45 1022.83 960.02 850.913 822.965 735.634 725.146 692.349 647.331 643.791
threshold=8.1427545059010225 2.7969565371313574 14.245418027008137 5.1218868305604941 25.143049396920727 1.6807477055377296 -1.2920341341695691 0.053810985912090888 17.803064869303931 0.71149414485671814 11.770770022822624 1.0274381909377073 3.7970815456578086 1.578240981076801 6.3435527299758574 32.311566637689502 13.076899902432148 2.0817023205556375 -1.2918269402367608 17.544752140118248 0.71258214603055636 24.509600021832231 0.71179305139956595 8.9469669910158629 3.1365608593223122 -1.291838391829448 0.71165306899476855 22.064466281160843 0.71119923305550548 0.1902372204349273
decision_type=6 4 6 6 6 6 6 6 6 6 6 6 4 6 6 6 6 6 6 6 6 6 6 6 4 6 6 6 6 6
left_child=1 5 10 12 6 7 19 9 21 13 16 29 18 -1 -5 24 23 -7 -3 -4 -12 -8 -18 -2 -14 -16 -20 -26 -25 -9
right_child=2 3 4 14 -6 17 8 11 -10 -11 20 -13 15 -15 25 -17 22 -19 26 -21 -22 -23 -24 28 27 -27 -28 -29 -30 -31
leaf_value=-0.33935188204050065 0.64547980190956433 0.55763247860595588 2.0223956273949666 0.24017678894499103 3.8734333515167236 -0.16374516459735269 1.115943240564923 -0.15934959435287643 1.5943249949317537 1.0815297884600503 1.0260314824807384 -0.23225334853869395 0.11824989922195171 0.54696275393168137 0.82397639513015752 0.99362081573768091 0.65541721601640024 -0.097116295925744667 0.017594463061945616 2.5857244253158571 0.76466708458386945 1.3891294546294632 0.49234290945697839 0.69276480376720428 -0.16568363714725415 0.39166740667167477 -0.060965543934443069 0.19211246832518986 0.87083054813942895 -0.31509791925871383
leaf_count=32 73 10 23 714 12 1784 86 68 367 14 137 3556 1333 18 10 11 248 2271 1493 16 52 57 142 64 47 644 366 19 253 2824
internal_value=0 -2.12856 21.166 2.60775 31.8944 -4.21143 30.8982 -5.25933 29.8145 4.41484 14.9548 -5.35535 1.061 -0.405572 6.3152 2.3322 13.9547 -2.52859 0.101995 45.0701 19.0824 24.4967 11.9208 15.9886 2.19428 7.96555 0.0425513 -1.25363 16.6976 -6.22872
internal_count=16744 15214 1530 4647 561 10567 549 6512 510 64 969 6448 3279 50 1368 1410 780 4055 1869 39 189 143 390 390 1399 654 1859 66 317 2892
shrinkage=0.05


Tree=5
num_leaves=31
num_cat=0
split_feature=15 15 15 15 12 15 10 15 10 10 12 15 15 15 15 15 15 1 15 12 4 15 15 10 15 12 12 10 15 5
split_gain=680819 135454 92011.4 24051.4 23580.2 16878.3 6064.9 5669.7 5387.04 4011.62 3541.78 3590.94 3366.5 2695.99 2646.05 2139.18 2647.52 1761.3 1400.69 1234.2 1037.05 1032.48 1002.88 825.212 775.798 1072.85 735.999 623.359 596.281 594.298
threshold=8.1427545059010225 2.7969565371313574 14.245418027008137 5.0479909853354146 39.683342381355885 1.5160783558551774 50.334539008449312 16.262927052194826 50.900647188815924 40.087468098086013 32.311566637689502 3.6139867382644666 6.3435527299758574 2.0081397261552634 11.770770022822624 0.062892259073568532 0.96658394210056475 0.71149414485671814 16.966957704200251 24.509600021832231 1.5000000000000002 10.721098174771734 9.0536656160319957 37.56030320442563 17.960800316459061 31.409586669182243 22.250112798672181 45.728283572299212 4.575683786869722 7.5000000000000009
decision_type=6 4 6 6 6 6 6 6 6 6 6 6 6 6 6 6 6 6 6 6 6 6 6 6 6 6 6 6 6 6
left_child=1 5 9 10 7 6 15 19 24 14 11 -3 -5 -7 22 17 -17 20 -10 -4 26 -11 -2 -24 -9 -26 -1 28 -13 -15
right_child=2 3 4 12 -6 13 -8 8 18 21 -12 27 -14 29 -16 16 -18 -19 -20 -21 -22 -23 23 -25 25 -27 -28 -29 -30 -31
leaf_value=-0.0091115094928277875 0.61447776113495678 -0.0068949987295875703 1.022710381235395 0.22412864989123937 3.9212450885772707 -0.17092992923809175 0.97224672794342037 1.3087203480980614 1.8205897071144794 0.50776692655589017 0.94393984621221372 0.088071175756991249 0.37836375547578666 -0.15006362241277463 0.98904733184784177 -0.30142590032242722 -0.23264218512592905 0.49589249412218728 2.5635454050699873 1.3737715867849498 0.25382055214473181 0.6955775048754631 0.69612191982483607 0.84399726924611562 1.5166963208446189 2.0418145179748537 -0.44037087397141894 -0.025341894591325211 0.16040044143372639 -0.0853660340956445
leaf_count=18 132 1631 70 771 10 2270 10 44 11 223 11 1100 654 426 126 2545 3108 15 15 39 14 109 178 201 362 10 22 95 385 2139
internal_value=0 -2.02214 20.1077 2.47736 30.2996 -4.00086 -5.16161 29.4262 31.0193 14.2071 0.964386 0.903016 5.89829 -2.62476 15.6761 -5.20462 -5.27218 0.33035 44.9844 22.9664 -2.33284 11.3886 14.664 15.4909 30.1464 30.6162 -4.92608 1.97753 2.13646 -1.92222
internal_count=16744 15214 1530 4647 561 10567 5732 551 442 969 3222 3211 1425 4835 637 5722 5653 69 26 109 54 332 511 379 416 372 40 1580 1485 2565
shrinkage=0.05


Tree=6
num_leaves=31
num_cat=0
split_feature=15 15 15 13 15 15 11 15 15 3 15 15 12 15 15 3 8 15 15 3 13 12 13 15 8 5 15 5 15 12
split_gain=614468 117382 88874 22823.4 19746.9 15247.2 5902.7 5139.49 5109.99 6033.16 4547.24 3236.31 3221.61 2904.55 2896.41 1949.72 1814.3 1650.93 1491.24 1201.06 898.148 777.365 736.198 700.152 798.828 1456.73 778.673 683.755 669.763 639.04
threshold=7.8812655017666193 2.7969565371313574 14.245418027008137 48.658721094540184 4.9192064177116199 1.6807477055377296 30.707440827715942 17.689858722593641 0.033323084043549313 0.71149351235595926 9.1822699767265572 1.108969576825938 32.311566637689502 6.3435527299758574 3.6139867382644666 0.71179305139956595 3.5000000000000004 11.770770022822624 2.2505051633589415 0.71131980767385883 19.246125000098726 11.474775296124333 36.732718176124628 0.1902372204349273 1.5000000000000002 19.500000000000004 0.76718002086557069 7.5000000000000009 11.991890367293697 30.923583343483553
decision_type=6 4 6 6 6 6 6 6 6 6 6 6 6 6 6 6 6 6 6 6 6 6 6 6 6 6 6 6 6 6
left_child=1 5 10 6 12 8 20 22 9 16 21 23 14 27 -3 17 -1 19 -7 -12 -4 -2 -8 24 -10 -26 -25 -6 -17 -9
right_child=2 4 3 -5 13 18 7 29 11 -11 15 -13 -14 -15 -16 28 -18 -19 -20 -21 -22 -23 -24 26 25 -27 -28 -29 -30 -31
leaf_value=-0.30006735279009894 0.61568418070673947 -0.0065502489706704657 1.7784401204850937 3.8065657901763914 0.12850086099889058 -0.13947307139373594 1.1427799825010629 1.4367211663233093 0.20189288457234703 1.231960399945577 0.64154665693640711 -0.20431099037157116 0.89674279147928415 0.35187284947659536 0.089891320867307695 0.50051045857586907 0.35304450525177855 0.92937226999889733 -0.077925250885606409 0.81211904921182776 2.2853586421293373 0.45465670012692527 0.82719666741111064 -0.30757215096021606 -0.31372874676450796 0.3463781225681305 -0.25833911439164847 0.23263478741608848 0.72215105739294316 1.7936089662405159
leaf_count=26 112 1631 18 10 208 2372 116 365 15 12 208 3064 11 585 1490 103 18 132 1683 205 17 227 22 1368 51 10 1948 653 51 13
internal_value=0 -1.96838 18.6436 28.7847 2.26126 -3.80082 27.9254 27.0729 -4.74872 4.76306 13.1628 -4.83123 0.850056 5.3179 0.789841 14.6205 -0.657705 15.5084 -2.27856 14.5243 40.4932 10.1572 21.8494 -5.50419 -2.5021 -4.11029 -5.573 4.14956 11.4782 28.9799
internal_count=16744 15145 1599 561 4578 10567 551 516 6512 56 1038 6456 3132 1446 3121 699 44 545 4055 413 35 339 138 3392 76 61 3316 861 154 378
shrinkage=0.05


Tree=7
num_leaves=31
num_cat=0
split_feature=15 15 15 14 15 15 2 10 15 10 2 15 2 15 15 15 15 15 13 16 16 15 16 14 15 16 10 15 16 16
split_gain=554694 110295 74900.4 20790.2 19653.4 13832.4 7121.72 5313.49 4111.09 3340.24 3129.4 3119.92 2649.8 2489.5 2223.26 2146.96 1702.57 2268.41 1519.11 1354.29 2200.91 866.258 859.948 802.12 798.82 781.892 1313.75 780.543 711.716 728.849
threshold=8.1427545059010225 2.7969565371313574 14.245418027008137 40.911728104864792 5.1218868305604941 1.5160783558551774 -1.2920341341695691 50.334539008449312 17.689858722593641 40.087468098086013 -1.2879874608931936 3.7970815456578086 -1.2918342639297586 6.5087215152175455 2.0081397261552634 11.770770022822624 0.96658394210056475 0.1902372204349273 19.246125000098726 1.578240981076801 2.2795044166565424 10.721098174771734 1.9984472309372276 18.150371568996231 10.390491537541331 -1.8271962357116038 41.126889598554818 8.9469669910158629 -0.84461390137416148 -0.19098277599173633
decision_type=6 4 6 6 6 6 6 6 6 6 6 6 6 6 6 6 6 6 6 6 6 6 6 6 6 4 4 6 4 6
left_child=1 5 9 6 10 7 18 16 -8 15 11 12 -3 -6 -7 23 17 19 -4 25 -21 -11 -20 24 -2 26 -1 -25 -14 -30
right_child=2 4 3 -5 13 14 8 -9 -10 21 -12 -13 28 -15 -16 -17 -18 -19 22 20 -22 -23 -24 27 -26 -27 -28 -29 29 -31
leaf_value=0.51072901606559762 0.53580344865422047 0.81397507607936859 1.6426975676887914 3.519596138867465 0.21211307462029302 -0.15429582541822848 1.0395827366487824 0.91851959943771355 1.3598740843601584 0.45622667138351991 0.92855673968791974 0.10149998198647964 0.057833250829427585 0.3482915911804601 -0.086351121169665646 0.89320858981874263 -0.21007571860936927 -0.27544957535187725 2.5955059814453119 0.66093615214029944 -0.11121330584088962 0.62826384601243046 1.9546718077226117 0.55908918380737305 0.71686003680030508 -0.26869463275690547 -0.19743119917417826 0.77408774224753241 -0.061618272806005715 0.0094611485355386611
leaf_count=10 167 10 19 11 777 2270 137 10 373 223 10 1333 394 591 2565 126 3108 2485 10 15 24 109 11 54 96 61 19 194 582 950
internal_value=0 -1.82525 18.1499 27.3454 2.23495 -3.61078 26.4845 -4.66159 25.4767 12.8261 0.906602 0.852565 0.0418627 5.41889 -2.36501 14.1666 -4.70184 -5.29672 39.3339 -1.20765 3.71535 10.2542 45.1966 13.2549 12.0379 -3.34095 0.93524 14.5455 -0.0424449 -0.350832
internal_count=16744 15214 1530 561 4647 10567 550 5732 510 969 3279 3269 1936 1368 4835 637 5722 2614 40 129 39 332 21 511 263 90 29 248 1926 1532
shrinkage=0.05


Tree=8
num_leaves=31
num_cat=0
split_feature=15 15 15 14 15 15 10 10 15 15 15 15 10 10 15 15 15 15 6 15 15 14 13 10 13 15 14 16 16 16
split_gain=500620 95634.9 72361.3 18859.6 17649.3 11026.3 4800.98 4217.56 4069.43 3592.83 2750.92 2359.83 2116.51 1786.25 1636.49 1531.56 1631.25 1224.67 1380.86 1119.09 1052.82 869.108 834.132 824.182 727.616 818.645 792.776 628.377 625.165 761.695
threshold=7.8812655017666193 2.6847461950055007 14.087804976465456 40.911728104864792 4.9192064177116199 1.5025574168346418 50.334539008449312 51.879095256868844 17.803064869303931 9.1822699767265572 3.6139867382644666 6.3435527299758574 8.0946106249892917 40.031647590237419 1.963860821420542 0.001734691362565704 0.96658394210056475 0.1902372204349273 25.500000000000004 16.966957704200251 11.8933538367213 18.396895283987888 36.732718176124628 40.90829335348554 22.221044805478027 3.6152108659742752 14.346416963529801 -0.75515769880709083 -0.19098277599173633 2.5197522635950675
decision_type=6 4 6 6 6 6 6 6 6 6 4 6 6 6 6 6 6 6 6 6 6 6 6 6 6 6 6 6 6 6
left_child=1 5 9 7 10 6 15 8 22 23 27 -6 -12 20 -7 -1 17 18 -17 -9 21 -11 -4 -2 26 -26 -14 -3 -29 -30
right_child=2 4 3 -5 11 14 -8 19 -10 13 12 -13 24 -15 -16 16 -18 -19 -20 -21 -22 -23 -24 -25 25 -27 -28 28 29 -31
leaf_value=0.36551824483004486 0.52198717325630761 0.042669209797338965 1.0494283450666326 3.3436163252050228 0.1874428563973024 -0.14964945768543697 0.87259356975555424 1.5526454401016236 1.3069052788271662 0.6061499405669295 0.7421808647612731 0.31759789702761121 0.088046823650268072 0.53615088266945787 -0.089907840491303709 -0.16453983194979968 -0.20028250519254792 -0.26167709376130788 0.33515488877892496 2.1356333323887418 0.84445336269480853 0.76368589687020816 0.7224788893824039 0.36306767695359071 -0.29036010503768922 0.027479680639857701 0.53513508915901187 -0.073660371450536513 0.039288745117181646 -0.05003094825852248
leaf_count=11 202 443 129 11 861 2157 10 20 373 219 12 585 1264 213 2448 102 3044 2485 16 14 112 146 23 137 22 258 10 458 509 450
internal_value=0 -1.7767 16.8281 25.8667 1.87226 -3.50723 -4.44108 25.0598 24.3607 11.8213 0.63573 4.80198 1.6124 13.1311 -2.35782 -4.47977 -4.50274 -5.08404 -1.93569 35.854 14.2064 13.3833 19.9991 9.15526 1.51022 0.0501311 1.83112 -0.186559 -0.511678 -0.0524704
internal_count=16744 15145 1599 570 4872 10273 5668 559 525 1029 3426 1446 1566 690 4605 5658 5647 2603 118 34 477 365 152 339 1554 280 1274 1860 1417 959
shrinkage=0.05


Tree=9
num_leaves=31
num_cat=0
split_feature=15 15 15 15 15 15 10 10 15 10 15 15 14 15 15 15 16 16 15 1 10 1 5 15 14 6 15 15 10 15
split_gain=451966 90124.5 60991.9 17206.9 15874.4 12224.6 4452.7 4133.35 3461.93 2731.73 2481.8 2129.1 1892.19 2074.88 1846.83 1696.71 1216.32 1947.94 1036.98 957.044 1477.77 1444.43 933.766 869.465 788.807 715.238 704.76 693.476 626.486 622.484
threshold=8.1427545059010225 3.1769229553635383 14.245418027008137 25.143049396920727 1.7407463092226541 5.5974558720640539 50.432067875711859 51.879095256868844 17.803064869303931 41.036119920408403 1.108969576825938 2.439959505895803 39.539542435016202 4.3155051266264017 11.446938246111278 0.1902372204349273 1.578240981076801 2.2795044166565424 6.8303765125984404 0.71082981932279787 42.32671571965242 0.71122653045667883 14.500000000000002 10.721098174771734 18.150371568996231 25.500000000000004 16.788343641639194 8.9469669910158629 36.992806622999666 0.75940051076308546
decision_type=6 4 6 6 6 6 6 6 6 6 6 6 6 6 6 6 6 6 6 6 6 4 6 6 6 6 6 6 6 6
left_child=1 4 9 7 6 12 10 8 25 14 15 -6 13 -3 24 16 19 -18 -7 -1 21 -21 26 -11 -2 -4 -9 -26 -29 -17
right_child=2 5 3 -5 11 18 -8 22 -10 23 -12 -13 -14 -15 -16 29 17 -19 -20 20 -22 -23 -24 -25 27 -27 -28 28 -30 -31
leaf_value=-0.41146027995989876 0.52911678068912948 0.036005131496273955 0.89570458161419841 3.1070806662241619 -0.10840986285143826 0.2305346194285372 0.85335363507270812 1.2951491951942442 1.2393951422442004 0.39099097521641318 -0.17207417899420321 -0.038768247418205684 0.75971605747938165 0.12514267221892703 0.79096694492005026 -0.26576171703357393 0.62581880807876589 -0.10061199242870014 0.33107504348291295 0.66383491754531865 -0.2703696257727487 -0.063542449474334711 2.139127998352051 0.57006084036368587 0.50745793751307899 1.173421986349698 1.8494193077087404 0.53368835382991375 0.74584607505179079 -0.22155194767308906
leaf_count=26 260 1683 116 12 2757 597 10 12 371 195 3374 1824 10 1067 148 1334 15 24 450 11 35 18 10 104 63 29 11 45 154 1979
internal_value=0 -1.64758 16.3832 24.6812 -3.05365 2.56545 -4.02008 23.8624 23.1685 11.5791 -4.05101 -1.61362 1.46175 1.41181 12.7009 -4.6485 -1.08991 3.57569 5.47494 -3.11166 -1.03266 4.24719 34.7131 9.06552 11.8167 19.025 31.2047 13.0417 13.9574 -4.78707
internal_count=16744 15214 1530 561 11407 3807 6826 549 516 969 6816 4581 2760 2750 670 3442 129 39 1047 90 64 29 33 299 522 145 23 262 199 3313
shrinkage=0.05


Tree=10
num_leaves=31
num_cat=0
split_feature=15 15 15 13 15 15 2 10 15 10 2 15 15 15 15 15 4 10 6 13 2 10 15 16 15 13 2 6 16 16
split_gain=407900 81367.8 55045.2 15736.9 12643.1 12420.7 5477.73 4040.3 3080.82 2465.34 2348.98 2571.35 1921.32 1667.49 1629.85 1531.24 1482.5 1231.41 2202.58 1220.38 1200.61 1073.07 935.83 817.235 793.227 686.247 676.945 673.068 664.357 706.205
threshold=8.1427545059010225 3.016702919747464 14.245418027008137 48.658721094540184 5.5974558720640539 1.6807477055377296 -1.2920341341695691 50.432067875711859 17.544752140118248 41.036119920408403 -1.2879874608931936 4.0126394531260496 1.108969576825938 11.495141088876561 2.4124482378774297 0.1902372204349273 1.5000000000000002 43.048156615954362 10.500000000000002 19.246125000098726 -1.2918342639297586 45.687362814469857 6.8303765125984404 1.9984472309372276 12.56552503972566 26.359075408622079 -1.2910570203656191 25.500000000000004 -0.86771520337924246 -0.18887568320619594
decision_type=6 4 6 6 6 6 6 6 6 6 6 6 6 6 6 6 6 6 6 6 6 6 6 6 6 6 6 6 4 6
left_child=1 5 9 6 10 7 19 12 27 13 11 20 15 25 -7 16 21 18 -18 -4 -3 -1 -6 -21 -11 -2 -27 -8 -22 -30
right_child=2 4 3 -5 22 14 8 -9 -10 24 -12 -13 -14 -15 -16 -17 17 -19 -20 23 28 -23 -24 -25 -26 26 -28 -29 29 -31
leaf_value=-0.23349477559715123 0.50587257753067028 0.56264079874381423 1.409774448997096 3.1381181597709658 0.21900788849481764 -0.10742106800559251 0.83182354900572042 0.81068597912788398 1.1661420877943649 0.40143226351940409 0.82453198462724697 0.10756165306513506 -0.16634310594412918 0.75474108149121699 -0.04415153126299709 -0.22738561994384063 -0.13269089026884595 -0.16423842906951905 0.79891021013259889 2.2901703262329094 0.07951358063349917 0.29456590251489118 0.31452129194181833 1.6654441660100763 0.65804526104646577 0.71731806982238344 0.55307755834096439 1.1110353893703884 -0.043890656142725588 0.028010819240180635
leaf_count=77 267 10 19 10 597 2975 108 10 376 265 10 1390 3060 143 1548 3313 11 15 15 10 309 11 450 11 34 106 154 27 579 834
internal_value=0 -1.56521 15.5641 23.4472 2.19279 -2.98837 22.7336 -3.87257 21.8514 11.0002 1.1871 1.13809 -3.90347 12.0658 -1.71534 -4.41608 -1.03541 3.93194 8.09543 34.0037 0.324994 -3.34974 5.20119 39.2587 8.61225 11.2439 12.4007 17.7533 0.261533 -0.0290399
internal_count=16744 15214 1530 561 4179 11035 551 6512 511 969 3132 3122 6502 670 4523 3442 129 41 26 40 1732 88 1047 21 299 527 260 135 1722 1413
shrinkage=0.05


Tree=11
num_leaves=31
num_cat=0
split_feature=10 10 2 2 13 0 11 11 2 0 3 13 1 0 0 11 3 1 0 10 11 0 2 0 2 2 3 3 1 0
split_gain=191878 64898.6 65912 18162.5 15768.6 14191.3 12559 8578.17 8212.17 11464.9 7707.53 7404.44 5938.12 4919.02 4587.23 4472.57 3611.17 4762.99 3239.38 3033.91 2946.48 4848.67 3932.42 3091.24 2835.65 2612.28 2445.26 2294.04 2038.03 1635.15
threshold=26.37966552375228 39.376127225001269 -1.2920341341695691 -1.2903679274335611 15.677425939398169 -1.2911373146724847 54.424334481185518 55.18663648794422 -1.2909684702593738 -1.2909445018095631 0.71060950932162104 11.07302961634681 0.71064233278205624 -1.2900752460297611 -1.2893353532999099 29.914385097617792 0.71225367839960874 0.71150503052767389 -1.2906376390729586 11.184328154374398 38.801768936600958 -1.2908366437854149 -1.2908290537763081 -1.2912602195567919 -1.2912254653045665 -1.2893465385764882 0.71228117553786385 0.71013453454120545 0.71143142741304677 -1.2915911173222343
decision_type=6 6 6 6 6 6 6 6 6 6 6 6 6 6 6 6 6 6 6 6 6 6 6 6 6 6 6 6 6 6
left_child=6 4 5 10 -2 27 -1 -5 -6 25 11 -4 15 16 18 -12 20 -18 28 -8 21 22 -14 -24 -23 -10 -16 -3 -11 -27
right_child=1 2 3 7 8 -7 19 -9 9 14 12 -13 13 -15 26 -17 17 -19 -20 -21 -22 24 23 -25 -26 29 -28 -29 -30 -31
leaf_value=1.0795151338471642 0.041529551474285491 0.70445393553146962 -0.082864155553500449 0.33624044658616187 0.61104593860386958 3.3437662220001223 0.17809404088184239 1.8408387756347659 0.3614283320180654 0.00061580256195896768 -0.053110645465427757 0.24186086474299515 -0.10228659702704922 0.49219013369745679 0.29830966427504463 0.24167566095968174 0.34111847959289499 -0.085228376143416509 -0.14521904988663203 0.68568249378311508 -0.15207297363702596 0.18460532422703241 0.14290150735908558 -0.072346149898800102 -0.048575832814740191 1.0003926704327266 1.1159798049926759 1.4854627377846663 0.42785775624918493 0.5600736419359843
leaf_count=395 506 13 340 180 283 10 44 10 214 59 283 363 9605 36 107 236 110 162 166 89 2038 248 298 379 275 24 10 34 53 174
internal_value=0 -0.610842 -1.27182 -1.40466 5.44403 32.6671 18.7602 8.3086 7.58567 5.96018 -1.53306 1.69621 -1.69913 -1.83007 2.11065 1.6187 -1.86212 1.74383 -0.100257 10.3552 -1.93849 -1.73045 -1.88154 0.448019 1.23991 9.65087 7.36392 25.3888 4.05586 12.2689
internal_count=16744 16216 14620 14563 1596 57 528 190 1090 807 14373 703 13670 13151 395 519 13115 272 278 133 12843 10805 10282 677 523 412 117 47 112 198
shrinkage=0.05


Tree=12
num_leaves=31
num_cat=0
split_feature=14 12 12 2 2 12 14 2 2 12 13 16 2 2 12 2 2 12 16 2 14 2 12 16 2 2 12 2 12 14
split_gain=141847 64625.8 33827.7 32485.2 20973.5 14404.1 8859.04 6479.2 10030 5282.09 5479.92 3920.16 3747.62 3173.31 3085.48 10593.6 10349.6 4433.34 2352.42 2501.38 4246.92 2267.15 1911.36 1765.96 2786.17 1625.36 1561.79 1556.75 1493.34 1298.96
threshold=21.24108448460743 20.805254679430544 12.521560012650538 -1.2919772756802959 -1.2904496864790265 41.034468415055365 32.702559509754558 -1.2908218632413651 -1.2893747015050159 28.925339120384411 17.896275124062459 2.5803022339301243 -1.289328229343994 -1.2893310256631387 15.686345653316414 -1.2912210710887677 -1.2908290537763081 17.61421261795477 1.8630870629386147 -1.2916182815653532 5.2404582924725505 -1.2909740628976629 20.3662486584055 2.0286239416450322 -1.2886423322052443 -1.2918323997169956 29.127294749812815 -1.2917031698250994 12.804440470591585 12.146077797685502
decision_type=6 6 6 6 6 6 6 6 6 6 6 6 6 6 6 6 6 6 4 6 6 6 6 4 6 6 6 6 6 6
left_child=2 12 7 11 9 6 25 -1 -9 14 -11 -4 21 -6 15 -5 18 -18 -16 20 -20 -2 -22 24 -8 -3 -26 -24 -14 -19
right_child=1 5 3 4 13 -7 23 8 -10 10 -12 -13 28 -15 16 -17 17 29 19 -21 22 -23 27 -25 26 -27 -28 -29 -30 -31
leaf_value=0.57259408105345611 0.57756062508984052 1.6251412304964934 1.4736000860059584 0.57609570804410259 0.2652646784431576 2.7600820823149252 0.73957451216636172 -0.022776408414111327 0.52941809740559809 0.082812937262157604 0.99058425530143401 0.51529312481482825 0.24325506583092707 0.65817357504274698 -0.08605555532626312 -0.14816308803099004 -0.0035910792843926523 0.16021806654507575 -0.079877547926961431 -0.06011132693372645 0.42374599042993327 0.053950270345850128 0.21682535942601061 1.0862264251708984 0.52944911201794953 1.0090853067527852 -0.10290420046741409 0.021377320884446788 0.59987970363010068 0.35232759153406168
leaf_count=206 22 11 37 52 261 11 31 190 145 60 23 15 63 64 7879 1740 525 365 427 3171 52 344 174 10 15 406 28 246 55 116
internal_value=0 11.5735 -0.731978 -1.00842 -1.09403 19.4053 18.6193 7.03854 4.32466 -1.26819 6.68728 23.9433 3.28858 6.85275 -1.31296 -2.54293 -1.14283 1.93766 -1.40218 -0.784764 0.687731 1.70848 2.75514 9.24988 7.56412 20.5067 2.35368 2.04697 8.18957 4.13096
internal_count=16744 996 15748 15207 15155 512 501 541 335 14830 83 52 484 325 14747 1792 12955 1006 11949 4070 899 366 472 84 74 417 43 420 118 481
shrinkage=0.05


Tree=13
num_leaves=31
num_cat=0
split_feature=10 0 10 10 10 11 13 0 16 11 0 10 10 16 0 0 11 11 0 13 16 0 11 0 11 0 11 0 10 11
split_gain=156493 54598.3 27251.1 26551.7 22632.4 10409.1 6355.8 12152.8 5154.03 2611.17 3450.99 3376.15 2550.45 3612.08 2301.12 2100.23 4682.79 1587.89 2339.2 1582.07 1574.12 3214.23 6219.45 2573.24 1891.14 3456.07 2313.58 1518.91 1326.38 1317.35
threshold=26.37966552375228 -1.2893873515201937 54.347164576519013 39.344931882887991 42.724953534531458 54.424334481185518 15.677425939398169 -1.2909445018095631 2.0168039525752977 44.572838526265123 -1.2910484982501307 49.731800632351742 11.184328154374398 1.2162189294363934 -1.2906376390729586 -1.2917029700880176 29.281285258422155 45.952345755128313 -1.2889063846273254 19.246125000098726 1.8237120234675908 -1.2912544937604482 35.131098309163562 -1.2913816597024994 39.051224430940714 -1.2908410380012134 36.484367091848533 -1.2916045662857392 43.186163632364952 46.375025270998499
decision_type=6 6 6 6 6 6 6 6 4 6 6 6 6 4 6 6 6 6 6 6 6 6 6 6 6 6 6 6 6 6
left_child=5 2 3 6 17 -1 -2 27 19 11 -11 15 13 -7 29 16 -5 -3 -19 -4 21 22 -17 -24 25 -22 -27 -8 -12 -9
right_child=1 4 8 9 -6 12 7 14 -10 10 28 -13 -14 -15 -16 20 -18 18 -20 -21 24 -23 23 -25 -26 26 -28 -29 -30 -31
leaf_value=0.97594150093537346 0.040992574459694682 0.55842174390196353 1.2257580566406248 -0.094373167920721715 2.8967870044708253 -0.092617186060284865 0.73743000328540809 0.11400452229890459 0.27812004327774048 0.50070939639752565 0.49613413008359769 0.80864377021789557 0.6184859560614222 0.98848251342773441 -0.086936628565949914 -0.080623502547215231 0.23019044993315788 0.26992538741425326 0.95451780131885 1.9520656221111616 -0.0543110336313955 -0.11546380571820097 0.19038508561603204 0.0052487211713398048 -0.14105535383986414 0.24479137432894538 0.016849849015516019 0.41369623634481684 -0.02743489720140185 0.52739823857943224
leaf_count=395 501 263 15 274 10 34 40 98 10 44 13 11 89 10 177 4323 187 115 14 15 3466 4187 285 550 477 154 402 386 175 24
internal_value=0 -0.55165 -0.844208 -0.910313 10.9571 16.9423 3.55895 5.45176 25.2243 -1.28695 2.04137 -1.34089 9.29039 3.06175 0.564697 -1.35435 0.745656 9.75865 6.88444 31.7782 -1.42428 -1.65829 -1.12985 1.36878 -0.938226 -0.714921 1.59969 8.88188 0.175387 3.90656
internal_count=16744 16216 15814 15774 402 528 1226 725 40 14548 232 14316 133 44 299 14305 461 392 129 30 13844 9345 5158 835 4499 4022 556 426 188 122
shrinkage=0.05


Tree=14
num_leaves=31
num_cat=0
split_feature=15 15 15 14 15 15 15 15 10 11 15 3 15 15 15 15 8 15 15 5 5 13 5 3 14 10 5 5 8 5
split_gain=286939 51776.9 51311 13114.4 7574.79 6623.73 5165.21 3424.02 6403.15 2631.86 2275.57 1480.82 1422.16 1176.75 1066.66 1052.43 996.178 966.195 872.972 1040.2 697.693 627.341 559.448 551.55 546.791 1020.43 613.874 677.466 648.433 535.236
threshold=6.8303765125984404 14.087804976465456 2.6272691892954403 40.911728104864792 1.5025574168346418 4.36101734753088 8.9469669910158629 0.033323084043549313 44.32289225449437 30.707440827715942 17.544752140118248 0.70945722609697104 0.8996515661557728 3.2619961046324 1.963860821420542 5.5974558720640539 3.5000000000000004 0.016472614948860122 11.770770022822624 19.500000000000004 5.5000000000000009 33.596917301310725 7.5000000000000009 0.71161601776610295 17.166058605058378 46.497272163067457 7.5000000000000009 18.500000000000004 4.5000000000000009 7.5000000000000009
decision_type=6 6 4 6 6 6 6 6 6 6 6 6 6 6 6 6 6 4 6 4 6 6 6 6 6 6 6 6 6 6
left_child=2 6 4 9 7 11 -2 8 16 -3 21 -4 -9 24 -6 -7 17 -1 19 20 -8 -11 -16 -17 25 26 -13 28 -28 -15
right_child=1 3 5 -5 14 15 18 12 -10 10 -12 13 -14 29 22 23 -18 -19 -20 -21 -22 -23 -24 -25 -26 -27 27 -29 -30 -31
leaf_value=-0.44300658636622964 0.29973958707599696 1.3535269587380547 0.62574486643075944 2.6770618939941584 -0.115390564280566 0.11279821102851083 0.3595646542223061 -0.21256694050754341 1.3586207389831544 0.80029514364476473 0.97011608913894687 -0.080852927355163376 -0.16095048703784209 -0.015727978589859876 -0.12116703355222808 0.22607352351387144 0.25285315016905469 0.17013027310371395 0.58778932326369826 0.35902683281829595 0.53528960563353645 0.56565977273843238 -0.055375732585828563 0.1185601367730873 -0.11246286439674087 0.49751317076385021 0.066300439329675095 -0.045237228218212466 -0.040366021358646718 0.06145656901864948
leaf_count=18 654 35 10 11 2157 1023 68 2188 10 106 379 247 3424 275 389 432 18 10 180 173 335 39 1918 165 132 10 503 404 199 1232
internal_value=0 11.3041 -1.51599 19.3469 -2.77649 1.24121 8.05271 -3.54385 4.23741 18.674 18.1132 0.364187 -3.62149 0.323712 -1.80216 2.87184 -0.74846 -4.48058 9.83297 9.23209 10.1128 14.7437 -1.32939 3.92718 -0.305019 -0.116729 -0.191134 0.127314 0.721262 0.947436
internal_count=16744 1980 14764 570 10132 4632 1410 5668 56 559 524 3012 5612 3002 4464 1620 46 28 756 576 403 145 2307 597 1495 1363 1353 1106 702 1507
shrinkage=0.05


Tree=15
num_leaves=31
num_cat=0
split_feature=10 2 10 2 14 11 16 11 12 16 1 14 2 14 14 12 12 2 12 1 12 10 1 14 2 2 10 16 1 2
split_gain=127264 44472.1 45566.6 12480 11128.3 8591.57 8253.96 5861.85 4688.78 3508.96 3201.74 3993.05 3514.89 3196.19 2708.06 2702.75 2922.59 4196.36 2528.19 2511.54 2196.02 2177.06 5239.42 3439.48 2128.5 3538.61 2041.17 3190.41 2034.96 1757.87
threshold=26.37966552375228 -1.2921542427347317 39.463083086305112 -1.2903454237223497 13.817391685855176 54.424334481185518 1.7202634614231431 55.18663648794422 8.9988119400966493 2.6389886988279132 0.71060661313393558 3.9495395229191153 -1.2917394553949517 18.150371568996231 4.9527226767085191 11.5646735413877 15.238068444835212 -1.2907395715636814 13.987629481674222 0.71090438783332 17.61421261795477 45.742469364131146 0.71164790912015652 12.482027839761065 -1.2911634136511676 -1.2895498709257158 11.184328154374398 1.2162189294363934 0.71040824092223831 -1.2902386309626375
decision_type=6 6 6 6 6 6 4 6 6 4 6 6 6 6 6 6 6 6 6 6 6 6 6 6 6 6 6 4 6 6
left_child=5 6 4 10 19 -1 -2 -5 -6 -8 11 -4 14 18 -12 -14 -17 21 24 29 -19 22 -18 -24 -10 -26 27 -7 -20 -3
right_child=1 2 3 7 8 26 9 -9 13 -11 12 -13 15 -15 -16 16 17 20 28 -21 -22 -23 23 -25 25 -27 -28 -29 -30 -31
leaf_value=0.88096175640444219 2.7043399715423586 0.0031373778459763547 -0.080597341752172202 0.28915759400871699 0.11725448988069445 -0.093208345727008937 1.355091661565444 1.5354914689064028 0.45336382457843194 0.28953428491950034 -0.056712250668993769 0.19495184417146277 0.39523286108047734 0.54229988921230488 0.25043345936328959 -0.14130578606168484 -0.076177594326015577 0.0048316307653088718 0.035923901200294497 0.21798981424097572 0.21846091595278785 -0.15100170859707635 0.22032528409751456 -0.0050186584676859469 -0.017702380124448743 0.4397271963266226 0.55406980270917494 0.92283927202224736 0.61836943270431632 0.33620691131367242
leaf_count=395 10 505 261 167 169 34 34 10 78 10 136 265 31 275 152 1375 9779 424 18 260 168 793 218 759 121 65 89 10 90 43
internal_value=0 -0.497473 -0.593198 -1.1544 4.43066 15.2785 28.1525 7.19144 7.03556 22.2584 -1.25726 1.1645 -1.34934 8.26074 2.10785 -1.42283 -1.44423 -1.28772 6.3496 1.79997 1.30912 -1.42084 -1.30294 0.905256 4.68202 2.84304 8.32654 2.75423 10.4259 0.585448
internal_count=16744 16216 16162 14538 1624 528 54 177 816 44 14361 526 13835 647 288 13547 13516 12141 372 808 592 11549 10756 977 264 186 133 44 108 548
shrinkage=0.05


Tree=16
num_leaves=31
num_cat=0
split_feature=15 15 15 12 15 15 15 15 16 15 12 12 11 15 15 12 13 15 15 5 5 13 5 16 11 12 5 5 5 5
split_gain=238241 44845.5 42229.8 14115.2 6390.86 5915.4 3349.97 3048.18 3006.58 2888.69 2645.38 1600.47 1466.93 1181.09 1103.74 1034.01 2907.27 1005.97 884.569 794.502 926.678 595.182 570.95 565.319 532.435 515.896 487.939 507.141 465.169 453.813
threshold=6.8303765125984404 2.5660916616246339 13.413534666413087 39.683342381355885 1.3945629460122217 4.36101734753088 8.918690013303932 0.053810985912090888 -0.46804418268650966 16.22658050057051 25.61933121143505 32.311566637689502 32.65701122999139 3.2619961046324 1.963860821420542 16.316131076241827 16.785188959031675 0.86627272026146385 5.5974558720640539 19.500000000000004 5.5000000000000009 34.435328522114609 7.5000000000000009 -2.3933845191167973 38.935787789346115 31.92441071158613 7.5000000000000009 19.500000000000004 7.5000000000000009 7.5000000000000009
decision_type=6 4 6 6 6 6 6 6 6 6 6 6 6 6 6 6 6 6 6 4 6 6 6 6 6 6 6 6 6 6
left_child=1 4 6 9 7 11 -2 8 -1 21 15 13 -11 24 22 -10 -17 -9 29 20 -8 23 -6 -4 -3 -25 -15 -28 -16 -7
right_child=2 5 3 -5 14 18 19 17 10 12 -12 -13 -14 26 28 16 -18 -19 -20 -21 -22 -23 -24 25 -26 -27 27 -29 -30 -31
leaf_value=-0.3161352736609323 0.27575057449748447 -0.0014979311514729378 1.0613346624374391 2.7177229928970341 -0.16533044999474802 0.044152094010749592 0.3224811765788631 -0.20062100660882473 -0.19800696996125311 1.2557769738710844 1.1262956285476686 0.64851741790771489 0.86866669990566869 -0.013359562098979949 -0.11358028752547703 -0.17897354797883464 0.97068399516018955 -0.15491918818152808 0.18263341499526847 0.35493665920687961 0.50194844439496067 0.47525227446305129 -0.1002160609193902 0.63543945320017714 -0.077257200054854397 0.96851205825805664 0.082743428972189115 0.014446483629261271 -0.051155544023504973 0.12396714838555208
leaf_count=21 648 1382 10 10 394 230 88 1992 11 26 10 10 419 275 359 11 11 3048 597 222 395 38 2327 111 279 13 829 405 1780 793
internal_value=0 -1.38137 10.3003 17.0844 -2.59103 1.12969 7.1564 -3.37255 3.48589 16.4804 8.27614 0.337305 17.8257 0.297453 -1.77027 3.95802 7.9171 -3.45965 2.6851 8.66508 9.38501 12.9997 -2.19289 13.9907 -0.284466 13.4072 0.937989 1.20657 -1.23265 2.12045
internal_count=16744 14764 1980 627 9964 4800 1353 5104 64 617 43 3180 445 3170 4860 33 22 5040 1620 705 483 172 2721 134 1661 124 1509 1234 2139 1023
shrinkage=0.05


Tree=17
num_leaves=31
num_cat=0
split_feature=0 2 2 2 0 2 2 0 2 13 0 2 2 2 14 6 0 0 13 5 6 2 0 14 2 0 5 0 2 0
split_gain=104892 54716 25130.3 12337.2 7748.65 6529.1 6110.8 7676.97 5545.53 2849.37 3847.77 3800.43 2978.44 2795.13 2732.57 2003.25 1980.03 1875.01 1652.42 1605.78 1490.67 1104.13 1051.39 908.27 2837.52 2983.32 891.565 877.967 850.883 849.135
threshold=-1.2893873515201937 -1.2893465385764882 -1.2919772756802959 -1.2918323997169956 -1.2881436552911267 -1.2880754117881934 -1.2905755874195599 -1.2910588179993547 -1.2896557315790464 22.121141177951575 -1.2908494269586472 -1.2908331150969705 -1.2912254653045665 -1.2907663363326367 14.834323290628756 24.500000000000004 -1.2905719921520882 -1.2916748071594901 19.922492536515474 7.5000000000000009 22.500000000000004 -1.2878785376046094 -1.2915911173222343 4.8120838472779299 -1.2916931829710114 -1.2916919179694937 13.500000000000002 -1.2904666641309757 -1.2912158779246423 -1.2913542291432718
decision_type=6 6 6 6 6 6 6 6 6 6 6 6 6 6 6 6 6 6 6 6 6 6 6 6 6 6 4 6 6 6
left_child=1 2 17 -2 13 22 9 29 -6 10 11 14 -12 26 19 -10 -11 -1 -13 -4 -19 -15 -3 -21 -25 -26 -5 -24 -18 -8
right_child=3 5 6 4 8 -7 7 -9 15 16 12 18 -14 21 -16 -17 28 20 -20 23 -22 -23 27 24 25 -27 -28 -29 -30 -31
leaf_value=0.38852973390709272 2.300775847434998 0.73704798791719517 -0.10194215004271626 0.60167290097187198 0.79256447230206162 0.85070322336152548 0.31991249984360121 -0.071810489383048612 0.23743508082546599 -0.10636738615118818 0.19436200330059328 0.13700095517317107 -0.029970498844657259 0.14058538461746325 0.66723266106385459 0.93462116022904729 0.49669980544310355 0.95390266373350807 -0.016418731549394366 -0.086658659185746015 1.5953198989232382 0.64450879494349167 0.40716317328560642 0.15477906581474823 0.17407839160862587 -0.052034070284100467 0.40958437455596086 -0.0013674168714455197 0.063208757865835324 0.17540530690428691
leaf_count=11 10 23 1748 88 305 129 176 392 73 2798 293 363 299 116 13 12 13 37 340 1380 12 12 219 178 149 7019 193 14 88 241
internal_value=0 -0.56395 -0.855524 11.1082 10.6713 11.2126 -0.934644 1.7411 13.8605 -1.08209 -0.863542 -0.994995 1.62118 7.63027 -1.14589 6.71723 -1.97031 19.5707 1.25602 -1.16388 22.2197 3.75656 8.28919 -0.988604 -0.848731 -0.946678 9.3948 7.65233 2.38009 4.72793
internal_count=16744 15935 15550 809 799 385 15490 809 390 14681 11782 11190 592 409 10487 85 2899 60 703 10474 49 128 256 8726 7346 7168 281 233 101 417
shrinkage=0.05


Tree=18
num_leaves=31
num_cat=0
split_feature=15 15 15 13 15 15 15 15 10 15 10 15 10 15 8 15 15 13 1 10 5 5 8 5 5 5 5 5 13 1
split_gain=197965 39291 34026 11322.4 5764.25 5008.28 2690.88 2679.3 5056.61 2138.76 1431.25 1024.99 1022.59 998.733 904.508 978.346 900.797 847.446 1123.53 895.119 943.679 890.332 1038.26 712.909 662.756 776.641 596.628 852.804 566.227 516.714
threshold=6.8303765125984404 2.5660916616246339 13.413534666413087 48.658721094540184 1.3945629460122217 4.0126394531260496 8.918690013303932 0.053810985912090888 44.395084783116722 16.22658050057051 50.900647188815924 5.5974558720640539 4.8929011702744534 1.963860821420542 3.5000000000000004 0.016472614948860122 0.86627272026146385 23.300379165649247 0.71104513589693086 46.421366077913881 7.5000000000000009 18.500000000000004 4.5000000000000009 12.500000000000002 19.500000000000004 5.5000000000000009 6.5000000000000009 19.500000000000004 34.435328522114609 0.71027145431074912
decision_type=6 4 6 6 6 6 6 6 6 6 6 6 6 6 6 6 6 6 6 6 4 4 6 6 4 6 6 6 6 6
left_child=1 4 6 9 7 12 -2 8 14 28 -11 26 -3 -6 15 -1 -9 19 -19 20 -14 22 29 -12 25 -8 -7 -28 -4 -22
right_child=2 5 3 -5 13 11 24 16 -10 10 23 -13 17 -15 -16 -17 -18 18 -20 -21 21 -23 -24 -25 -26 -27 27 -29 -30 -31
leaf_value=-0.42490580709357006 0.2548096158978656 0.4541327925828787 0.64688629357398852 2.4429542338848118 -0.10070069115270508 0.022783404464644264 0.29448232559317894 -0.18692253181658477 1.1976501750946047 0.78334454263465991 0.95879715606570226 0.17010130811220589 -0.057647911143367703 -0.055028503643942697 0.22042488103563135 0.1381528457769981 -0.14367443216549663 -0.58104478418827055 -0.044240535160410516 0.49302835412323476 0.44684069339185961 -0.0085540453259077241 -0.010821308397878242 1.4971485900878907 0.32443959548322671 0.45878839586578501 0.13883032000223791 0.047729882208331853 0.42899273006539601 0.085116132992894972
leaf_count=19 648 13 139 10 2721 256 88 1992 10 414 16 597 345 2139 22 13 3048 10 393 10 10 819 372 10 222 395 743 393 38 839
internal_value=0 -1.2592 9.38933 15.479 -2.39148 1.09121 6.5673 -3.1337 3.29645 14.938 16.1189 2.3056 0.231932 -1.61199 -0.528843 -3.92326 -3.21535 0.19081 -1.15121 0.416629 0.377032 0.63578 1.17699 23.3171 7.91947 8.57705 1.83536 2.14628 12.0021 1.78753
internal_count=16744 14764 1980 627 9964 4800 1353 5104 64 617 440 1989 2811 4860 54 32 5040 2798 403 2395 2385 2040 1221 26 705 483 1392 1136 177 849
shrinkage=0.05


Tree=19
num_leaves=31
num_cat=0
split_feature=10 2 10 2 3 13 11 11 3 2 2 16 13 1 2 3 3 3 1 10 1 11 16 3 1 13 1 2 1 3
split_gain=83970.4 32729.7 28676.2 9798.12 9147.27 5946.66 5903.67 5848.85 4687.02 4280.51 4898.45 4035.24 4001.43 3151.25 2928.54 2542.2 2346.94 2075.4 2951.62 1625.15 1615.72 1490.05 1389.86 1389.74 4436.38 1600.18 2691.45 1357.12 1327.76 1310.8
threshold=39.015616318547103 -1.2919772756802959 26.224650515027232 -1.2901867659004083 0.7111593522181815 16.098165298663986 55.50541879039811 56.163599533841783 0.71056816374569765 -1.2908651396090787 -1.2893465385764882 2.6585909033397761 12.354919098517941 0.71064036870075242 -1.2914849903527947 0.71011176451388525 0.71216549447801347 0.71225367839960874 0.71167011322574514 45.742469364131146 0.71099040793652957 44.586501881684626 -2.4285200920179144 0.71077442557212422 0.71123495270362624 13.641679436785482 0.71088488017833529 -1.2905949619164903 0.7103839395772914 0.71126584537227111
decision_type=6 6 6 6 6 6 6 6 6 6 6 4 6 6 6 6 6 6 6 6 6 6 6 6 6 6 6 6 6 6
left_child=2 4 7 8 11 28 -5 22 12 -7 15 -2 -3 14 -10 20 -17 19 -19 21 -11 23 -1 24 -15 -25 29 -23 -4 -27
right_child=1 3 5 6 -6 9 -8 -9 13 10 -12 -13 -14 17 -16 16 -18 18 -20 -21 -22 27 -24 25 -26 26 -28 -29 -30 -31
leaf_value=0.12136448875069619 1.0931300334441356 -0.0067320328048820531 -0.083035996564152378 0.27607427259286244 2.4901006746292116 0.42163599558331433 1.5351927244663239 0.28198218781720191 -0.090453172401059434 0.093835113756358626 0.36917554870888125 0.075876169479810282 0.2713248446508868 -0.073465547417655777 0.14991442316532744 0.032165862448936405 0.74210962255795798 0.21278689246079546 -0.096327920597403846 -0.13169126981650073 0.6541930456315318 0.48397778520981477 0.71804437754151318 -0.1234602012503203 0.17507282664386942 -0.052239326250468725 -0.064831524213905686 -0.10003393625511843 0.099850472024303277 0.10766488525534086
leaf_count=10 39 370 142 135 10 291 10 102 200 22 256 13 199 596 346 392 12 164 146 824 31 24 412 1054 257 203 9789 17 330 348
internal_value=0 -0.824788 6.08033 -0.921609 22.1031 3.82416 7.2582 12.4355 -1.0032 5.20047 3.88128 16.7763 1.81029 -1.11781 1.23735 1.91942 1.06507 -1.21362 1.34408 -1.27409 8.43183 -1.18291 14.0781 -1.20306 0.0283294 -1.29524 -1.17558 4.83653 0.896591 0.975056
internal_count=16744 14744 2000 14682 62 1476 145 524 14537 1004 713 52 569 13968 546 457 404 13422 310 13112 53 12288 422 12247 853 11394 10340 41 472 551
shrinkage=0.05


Tree=20
num_leaves=31
num_cat=0
split_feature=15 15 15 12 15 15 15 15 10 2 15 2 3 2 12 12 15 16 2 15 15 16 16 3 10 16 14 15 16 10
split_gain=164253 31387.4 31120.9 11548.8 4465.89 3869.09 2974.72 2313.21 4658.46 1976.2 1573.43 1509.92 1106.31 1087.72 800.461 986.817 789.664 667.499 738.419 646.232 590.768 551.771 556.667 513.676 493.056 450.106 439.333 406.539 528.073 406.123
threshold=6.3435527299758574 13.413534666413087 2.439959505895803 39.683342381355885 1.3945629460122217 3.7598076384955532 8.918690013303932 0.033323084043549313 44.32289225449437 -1.2920341341695691 17.544752140118248 -1.2880310701560436 0.71026423048629228 -1.291838391829448 20.251021182259148 14.871519221989065 0.89916306554465086 -0.84461390137416148 -1.2910595503686546 1.963860821420542 5.0479909853354146 2.5113463968549161 -0.050409173107509274 0.71238923329909376 41.132836720270994 0.67159522271743721 31.809222506307687 0.1902372204349273 -0.49604103646383274 37.532306866689872
decision_type=6 6 4 6 6 6 6 6 6 6 6 6 6 6 6 6 6 4 6 6 6 4 6 6 6 6 6 6 6 6
left_child=2 6 4 9 7 11 23 8 14 12 26 13 -3 -4 15 -1 27 -15 21 -6 -7 22 -19 -2 29 -16 -11 28 -9 -8
right_child=1 3 5 -5 19 20 24 16 -10 10 -12 -13 -14 17 25 -17 -18 18 -20 -21 -22 -23 -24 -25 -26 -27 -28 -29 -30 -31
leaf_value=-0.12618131240208941 0.23139107786919433 0.84059477806091309 0.52165396392345431 2.3886569523811341 -0.092165559627189655 0.072178398207602357 0.33959685335597722 0.092693173354773811 1.1524480974674225 0.57169282041088554 0.71264929658784648 0.61654328882694243 1.4247753500938416 0.04488940768896077 -0.4547363946835199 0.54651513218879699 -0.13158027840815709 -0.016807207468243528 -0.06316364170664171 -0.053256655127370947 0.12721889157844896 -0.034345210664379865 0.056772114410246245 0.073326303566044027 0.29356418616138397 -0.02143220752477646 0.36934083588421346 -0.17560667040699518 -0.17334153575952663 0.42940718230894082
leaf_count=12 797 25 10 10 2721 1329 242 33 10 167 381 10 12 624 12 10 2864 451 563 1758 771 620 599 55 200 12 32 2108 43 263
internal_value=0 8.08691 -1.21304 14.0609 -2.26665 0.815652 5.68119 -2.90618 3.48623 13.5145 13.0624 0.0623166 20.6012 0.0195243 -0.766542 3.5918 -2.9771 -0.0169249 -0.272537 -1.53788 1.84772 0.0614661 0.503361 4.42375 7.20083 -4.76169 10.7831 -3.43016 -1.15653 7.72739
internal_count=16744 2184 14560 627 9583 4977 1557 5104 56 617 580 2877 37 2867 46 22 5048 2857 2233 4479 2100 1670 1050 852 705 24 199 2184 76 505
shrinkage=0.05


Tree=21
num_leaves=31
num_cat=0
split_feature=10 12 10 16 2 2 10 3 3 16 12 12 12 12 2 12 16 10 3 12 2 3 16 12 2 3 10 10 12 10
split_gain=68201.4 26975.2 23364.5 14254 6156.06 5682.95 4865.96 3705.6 3223.74 2876.8 2784.7 2709.23 2254.32 2044.12 2960.5 1968.87 1954.59 1616.37 1592.96 1620.22 2046.05 1412.4 1314.56 1851.9 1268.89 1380.55 1090.92 1090.73 1052.01 992.257
threshold=39.015616318547103 32.52553397123193 26.224650515027232 1.7699295183407371 -1.2918626265953679 -1.2903679274335611 15.954888129964134 0.71056816374569765 0.71131980767385883 2.6585909033397761 11.5646735413877 16.480702400663446 24.538749598202426 15.407275787174884 -1.2907845124070765 17.61421261795477 1.8134167621793789 45.728283572299212 0.7096662509530286 26.284567531136741 -1.2913919128726963 0.71198263517966598 0.52000232248632894 32.311566637689502 -1.2891034585479912 0.71011176451388525 6.3861858442201784 41.520190478147263 9.3395566991885506 35.366679094641775
decision_type=6 6 6 4 6 6 6 6 6 4 6 6 6 6 6 6 4 6 6 6 6 6 4 6 6 6 6 6 6 6
left_child=2 4 6 -3 -2 7 22 12 18 -5 -9 -8 -6 -12 17 -16 28 21 -4 20 -20 27 26 -24 25 -22 -1 -15 -10 -27
right_child=1 3 8 9 5 -7 11 10 16 -11 13 -13 -14 14 15 -17 -18 -19 19 -21 24 -23 23 -25 -26 29 -28 -29 -30 -31
leaf_value=-0.31428383272141219 0.85811663175884056 2.7690687465667727 0.33965382843832431 0.96127426778116531 0.19821700893708658 0.21450110092618557 0.010436096612144919 0.33288707964597863 0.18697916217434865 0.1177154290676117 -0.1065881856799854 0.65437492141166709 -0.0050776008647561805 -0.081379317116596128 -0.0060773459901915499 0.16352990146065913 -0.25741929784417156 -0.12228528414313987 0.3725321361365227 -0.083411017898009115 0.24087573864366396 0.16617925097174072 0.20036154983358251 0.8781701258250646 0.34247266926731057 -0.030715613729085461 0.22845007587562907 -0.040920460297544044 0.3576540785055054 0.10336576910416539
leaf_count=16 19 10 79 31 234 212 17 47 130 15 1560 419 327 2068 538 251 16 769 78 101 121 77 36 14 52 214 22 8586 296 389
internal_value=0 -0.74332 5.47976 21.1628 -0.826841 -0.850141 11.2162 -0.925517 3.44323 13.724 -1.02725 12.5853 1.59438 -1.05333 -0.91643 0.957577 5.70381 -1.045 2.47691 2.11987 2.56787 -0.944627 4.4329 7.80296 2.07708 1.73431 -0.00138929 -0.975475 6.1114 1.11563
internal_count=16744 14744 2000 56 14688 14669 524 14457 1476 46 13896 436 561 13849 12289 789 442 11500 1034 955 854 10731 88 50 776 724 38 10654 426 603
shrinkage=0.05


Tree=22
num_leaves=31
num_cat=0
split_feature=14 12 12 2 12 2 14 1 2 2 1 12 2 2 12 2 5 12 2 13 1 13 14 1 2 1 2 1 12 12
split_gain=51144.8 25332.3 12090.4 11452.3 10033.2 8030.22 3746.46 3532.33 2944.48 4399.06 2181.93 1724.55 4420.29 4048.57 2177.55 1335 1315.25 1213.95 1194.86 1120.46 1988.99 3263.5 1468.44 1058.54 1040.73 986.651 896.673 875.968 2174.16 834.346
threshold=21.24108448460743 20.805254679430544 12.521560012650538 -1.2919772756802959 41.034468415055365 -1.2904756522996548 32.702559509754558 0.71207324923575588 -1.2908218632413651 -1.2896344928693531 0.70954777357403376 15.71885000581012 -1.2912210710887677 -1.2908412377382954 18.426023093248933 -1.290758480007421 7.5000000000000009 10.223179482099239 -1.2893310256631387 23.713034341296744 0.71158119693485011 19.75963370364882 15.967575924973959 0.71190507061291741 -1.2879274066106123 0.71091310968589017 -1.2918323997169956 0.71064036870075242 25.305516148370661 15.299491496292548
decision_type=6 6 6 6 6 6 6 6 6 6 6 6 6 6 6 6 6 6 6 6 6 6 6 6 6 6 6 6 6 6
left_child=2 7 8 -4 6 10 26 15 -1 -10 -5 12 -12 16 -15 17 -13 -2 29 20 22 -22 27 -23 -17 -16 -3 28 -18 -7
right_child=1 4 3 5 -6 18 -8 -9 9 -11 11 13 -14 14 25 24 19 -19 -20 -21 21 23 -24 -25 -26 -27 -28 -29 -30 -31
leaf_value=0.35906750120728925 0.27563998385479571 1.0667821103876287 0.71052601480713262 0.54518881291151045 2.0864369349046186 0.054639338397890584 0.25518816709518433 -0.096302981377777666 -0.056519458102293835 0.30607089633007112 0.36959272930398585 -0.078829072460169347 -0.098182718292347274 0.0073703022399828153 0.094487577643086948 0.12956004742678054 0.11638002345524417 0.956382155418396 0.39676508576376368 -0.10807533328715109 0.18754446404792355 -0.032806939302251384 0.56753209888935086 0.16797121154506589 0.52240723429454705 0.26109934873566343 0.60914978015378785 -0.043500702155218181 -0.066927197252500195 0.22658108125827955
leaf_count=206 19 11 52 16 11 117 84 169 173 162 52 1925 1761 669 235 268 298 10 64 482 262 748 10 72 18 143 406 7769 354 178
internal_value=0 6.94954 -0.439532 -0.604801 11.853 -0.655636 11.197 1.76245 4.20605 2.37645 -0.769026 -0.781662 -1.69532 -0.653917 1.23157 3.74136 -0.81953 10.2076 4.01767 -0.673725 -0.598343 0.678207 -0.76217 -0.303553 3.08569 3.15036 12.4244 -0.776554 0.337086 3.16774
internal_count=16744 996 15748 15207 512 15155 501 484 541 335 14796 14780 1813 12967 1047 315 11920 29 359 9995 9513 1082 8431 820 286 378 417 8421 652 295
shrinkage=0.05


Tree=23
num_leaves=31
num_cat=0
split_feature=15 15 15 14 15 15 15 15 10 4 2 10 15 8 14 2 16 15 14 15 15 16 2 15 14 10 16 16 16 16
split_gain=127397 25668.5 23982.8 8991.81 3490.15 3036.87 2792.45 2060.33 4930.41 1474.61 1344.41 1278.7 1080.75 1014.64 876.672 1637.69 723.244 1070.01 571.039 570.29 564.88 553.121 664.413 441.518 436.185 403.567 446.007 396.459 499.731 387.152
threshold=5.8370476847799599 13.388028444753868 2.2505051633589415 40.911728104864792 3.295689336668477 1.2207050368368333 8.8824011944574952 0.062892259073568532 45.490560491653049 1.5000000000000002 -1.2920341341695691 9.7919266165684515 17.544752140118248 3.5000000000000004 28.311909014082278 -1.2918320668218592 0.15403765565984279 0.010103678095957627 19.261807896342933 1.7529264637111863 4.575683786869722 -0.75515769880709083 -1.2910598166847633 0.83192424981915125 31.809222506307687 47.776457541223586 -0.34414629861260698 2.4856866989513988 -0.050409173107509274 2.4134455967772142
decision_type=6 6 4 6 6 6 6 6 6 6 6 6 6 4 6 6 6 4 6 6 6 4 6 6 6 6 6 4 6 6
left_child=2 6 5 10 11 7 -2 8 9 16 13 -4 24 -3 15 -13 -1 -18 20 29 -6 -17 27 -9 -12 -8 -27 28 -23 -7
right_child=1 3 4 -5 18 19 25 23 -10 -11 12 14 -14 -15 -16 21 17 -19 -20 -21 -22 22 -24 -25 -26 26 -28 -29 -30 -31
leaf_value=-0.43257674292514203 0.18807130507840258 1.1558672933017506 0.55180555343627924 2.0268316984176638 0.054689818152115516 -0.085985997596021269 0.32649786207983467 -0.16205515059357922 1.1565615952014923 0.32698326236323311 0.50394677759930706 0.62585570335388185 0.61495347620646168 0.65506984400749213 -0.46032876345244322 0.022639452344487557 -0.32668903790987458 0.34350769336928011 -0.043025068723779571 -0.059837062653815866 0.10418348442959922 -0.03871969299980265 -0.079115264985816391 -0.12876670839942239 0.30509502454237508 0.12076306124420272 0.48940027952194215 -0.046134381302044537 0.033745812189964315 -0.13404312324538392
leaf_count=19 1080 17 10 11 1611 2266 658 1800 10 19 169 10 375 25 11 716 13 11 112 1995 899 384 492 2236 33 46 10 564 627 515
internal_value=0 6.70434 -1.13487 12.1957 0.519559 -2.14719 4.77594 -2.77766 2.52527 -0.798274 11.6921 -0.253954 11.2944 17.1555 -0.294219 -0.259118 -4.04062 -0.390311 1.34971 -1.60491 1.44834 -0.305026 -0.56753 -2.87226 9.42922 6.3105 3.73182 -0.250534 0.124436 -1.89771
internal_count=16744 2424 14320 630 5436 8884 1794 4108 72 62 619 2814 577 42 2804 2793 43 24 2622 4776 2510 2783 2067 4036 202 714 56 1575 1011 2781
shrinkage=0.05


Tree=24
num_leaves=31
num_cat=0
split_feature=15 15 15 15 15 15 15 15 1 16 16 15 15 3 14 11 16 16 16 11 3 3 11 16 11 16 16 3 3 16
split_gain=114986 22508.6 22312.3 8170.45 3458.69 2456.31 2385.08 1763.76 2648.53 2084.9 1233.44 1104.9 679.672 615.9 564.846 556.322 541.164 571.292 982.032 534.464 502.122 482.14 463.359 408.269 464.951 384.037 579.052 538.087 426.794 373.245
threshold=5.9690291152180102 13.413534666413087 2.4124482378774297 25.143049396920727 1.3945629460122217 3.7230821352337311 8.3688882705417686 0.062892259073568532 0.71149414485671814 1.578240981076801 2.3003240663256945 17.544752140118248 0.83192424981915125 0.70945722609697104 17.458191509125857 44.40979135554403 2.4359494014920395 -0.048329077862388478 -0.74328847546019861 40.686416562483295 0.71179305139956595 0.71099153977999296 36.670694068164693 -0.93143167666410809 27.407268238229836 -0.29638993432044708 2.5113463968549161 0.71162643738386777 0.71040521157649839 -0.59103240380697886
decision_type=6 6 4 6 6 6 6 6 6 6 4 6 6 6 6 6 6 6 6 6 6 6 6 4 6 4 4 6 6 6
left_child=2 6 4 11 7 13 -2 8 9 -1 -11 19 -9 -4 23 -13 17 18 -6 -3 -8 -16 -7 -15 -25 29 -27 28 -28 -26
right_child=1 3 5 -5 16 22 20 12 -10 10 -12 15 -14 14 21 -17 -18 -19 -20 -21 -22 -23 -24 24 25 26 27 -29 -30 -31
leaf_value=-0.28139876263482233 0.17252500822078429 0.57906070173614566 0.39626072049140931 1.872309098641078 -0.042933152371129518 0.092098333295681845 0.31092278105047555 -0.15395239324453805 0.66546174787423196 0.75136419773101815 -0.034111601114273062 0.86281164169311531 -0.11560130058678264 0.048674450082990955 -0.3483881959319115 0.59195173521299616 -0.10094941695607458 -0.030110586880008477 -0.1098263659742988 0.41378399734111398 0.22041069327434526 -0.05437634858668814 0.038965604324599092 0.33995843917131424 0.010226709888878175 0.040471387361104894 0.28150295425545085 0.34212965726852418 -0.032723513440813028 -0.066225948473603399
leaf_count=35 876 72 10 12 1268 1402 658 1800 17 10 10 20 3232 529 15 370 855 1292 968 153 200 201 581 10 277 815 11 10 657 378
internal_value=0 6.46801 -1.06174 11.6028 -1.9565 0.672052 4.61132 -2.51607 2.39901 -0.973248 7.17253 11.0985 -2.5864 0.0875905 0.0605922 12.1168 -1.30489 -1.13183 -1.43785 9.33345 5.79649 -1.49588 1.53062 0.185712 -0.00739911 -0.039087 0.241161 -0.441933 -0.550983 -0.677881
internal_count=16744 2361 14383 627 9487 4896 1734 5104 72 55 20 615 5032 2913 2903 390 4383 3528 2236 225 858 216 1983 2687 2158 2148 1493 678 668 655
shrinkage=0.05


Tree=25
num_leaves=31
num_cat=0
split_feature=15 15 15 12 15 15 15 12 2 2 12 5 5 13 1 15 12 7 7 5 5 1 16 7 15 5 2 13 12 5
split_gain=103814 20898.8 19609 8562.19 2890.13 2489.08 2302.41 1757.57 1243.48 1132.51 941.316 805.914 983.247 787.258 787.225 735.726 796.462 832.481 1545.55 698.025 691.798 618.892 614.949 591.757 562.936 521.73 808.15 663.113 1009.85 655.172
threshold=5.8370476847799599 13.388028444753868 2.2505051633589415 39.683342381355885 3.2662243722721542 1.2116993538600349 8.3239399383030346 33.038563274447036 -1.2920341341695691 -1.2881750140129624 23.445300648609663 6.5000000000000009 19.500000000000004 19.246125000098726 0.71176858360705075 0.1902372204349273 21.859543691641907 4.5000000000000009 3.5000000000000004 7.5000000000000009 18.500000000000004 0.71122756243160123 1.9984472309372276 5.5000000000000009 4.0126394531260496 7.5000000000000009 -1.2917795359693576 23.300379165649247 18.362887937913861 19.500000000000004
decision_type=6 6 4 6 6 6 6 6 6 6 6 6 6 6 6 6 6 6 6 6 6 6 6 6 6 6 6 6 6 6
left_child=2 6 5 8 9 7 -2 15 13 25 14 -6 24 -3 -10 16 17 18 21 -7 -21 -1 -15 -19 -13 26 -4 29 -29 -27
right_child=1 3 4 -5 11 19 -8 -9 10 -11 -12 12 -14 22 -16 -17 -18 23 -20 20 -22 -23 -24 -25 -26 27 -28 28 -30 -31
leaf_value=0.40820242643356325 0.16118242967168084 0.5437652453780174 0.38459123522043231 2.0017977078631524 -8.5129852580663923e-05 -0.11922724658873665 0.27457304027597568 0.53627345561981199 0.3881119983347916 0.51888229101896288 0.55140139013159983 0.062193693380583739 0.02476150492505616 1.293347678184509 0.84482189893722548 -0.13128246948967651 -0.18380025937443689 -0.35296816746393839 0.72502648261460401 -0.050868647960786689 -0.094664919065465605 -0.039448619590086102 0.75137273181568498 0.13005689490925182 0.12363234918557238 0.026638097270236662 -0.069598438178702288 -0.05031071028925263 -0.55947938248515128 -0.040002257893032467
leaf_count=10 933 16 10 10 455 692 861 10 169 10 404 680 717 10 10 3923 42 15 11 2806 1330 34 11 11 827 1350 490 379 10 508
internal_value=0 6.05208 -1.02446 11.0071 0.471524 -1.93983 4.31205 -2.51739 10.5388 -0.247303 10.182 1.21128 1.45944 16.1615 8.27253 -2.55012 -0.141048 1.69189 3.89675 -1.45463 -1.29904 1.24581 20.1891 -2.97223 1.91819 -0.285982 -1.21029 -0.080305 -1.268 0.168356
internal_count=16744 2424 14320 630 5436 8884 1794 4056 620 2757 583 2679 2224 37 179 4046 123 81 55 4828 4136 44 21 26 1507 2747 500 2247 389 1858
shrinkage=0.05


Tree=26
num_leaves=31
num_cat=0
split_feature=15 15 15 14 15 15 15 10 15 10 15 15 10 15 6 10 14 3 13 1 15 10 3 15 13 6 6 10 16 16
split_gain=93792.6 19704 16722.5 7186.71 2978.39 2312.48 1567.54 1476.89 947.747 1135.87 585.474 634.131 564.692 580.269 921.363 554.03 656.343 543.86 492.354 583.894 533.44 481.27 471.412 458.753 426.838 414.544 632.427 381.099 418.34 369.567
threshold=6.3435527299758574 2.439959505895803 13.413534666413087 40.911728104864792 1.5025574168346418 3.9882394968549142 8.918690013303932 50.334539008449312 17.544752140118248 50.900647188815924 0.97634701828523573 0.001734691362565704 26.810251367243755 0.1902372204349273 25.500000000000004 4.8929011702744534 28.311909014082278 0.71180729931139786 13.613840199831213 0.71105379117047351 0.016472614948860122 45.735292428846329 0.71238923329909376 3.177890731260788 34.921534263471663 12.500000000000002 17.500000000000004 35.815246592103826 2.4363465635688946 -0.042470963517911957
decision_type=6 4 6 6 6 6 6 6 6 6 6 6 6 6 6 6 6 6 6 6 6 6 6 4 6 6 4 6 6 6
left_child=1 4 6 8 7 15 22 10 24 -10 11 -1 -13 14 18 -3 17 23 -14 -20 -21 27 -2 -17 -4 -22 -27 -6 29 -29
right_child=2 5 3 -5 21 -7 -8 -9 9 -11 -12 12 13 -15 -16 16 -18 -19 19 20 25 -23 -24 -25 -26 26 -28 28 -30 -31
leaf_value=0.24998431205749513 0.18188131792129603 0.33490755340227718 0.45108894690992712 1.7903832926668906 -0.17809962637461069 0.079811250327397498 0.27290997399720662 0.49628317594528204 0.53208223670956956 1.0075071701636682 -0.096781868437352481 -0.45945829244760372 -0.24981622142451154 -0.13382197082931802 0.34805112202962241 -0.00064925918251461129 -0.31187089104205373 -0.049647530584747301 0.35261365175247195 -0.35797781224052111 -0.14993456065654756 -0.12299617861541745 0.030452124374833973 0.040493918778944954 0.27077010989189149 0.43760791285471479 -0.077721007282917309 -0.053313982811252415 -0.083076742661240349 -0.016691229051289742
leaf_count=11 797 13 184 11 57 1818 705 10 379 13 2988 13 28 2537 15 1610 16 348 10 12 20 239 55 1172 40 11 13 1833 680 1106
internal_value=0 -0.916646 6.11097 10.4715 -1.75501 0.697597 4.35499 -2.21838 10.0191 10.957 -2.23985 -2.58029 -2.61165 -2.57933 -0.319094 0.180437 0.153505 0.186174 -1.48081 0.0106138 -1.24683 -1.08416 3.44212 0.33367 8.37778 0.365738 3.16943 -0.994717 -0.954281 -0.790643
internal_count=16744 14560 2184 627 9583 4977 1557 5668 616 392 5658 2670 2659 2646 109 3159 3146 3130 94 66 56 3915 852 2782 224 44 24 3676 3619 2939
shrinkage=0.05


Tree=27
num_leaves=31
num_cat=0
split_feature=0 2 2 2 3 1 2 14 2 0 2 3 1 3 1 13 1 3 3 5 14 13 14 5 2 5 0 0 2 14
split_gain=39447.3 20046.2 9105.77 8125.49 4658.21 4667.65 2589.96 2519.02 2515.79 2752.93 2725.18 2194.78 2017.46 1263.77 1123.39 967.187 1894.5 2166.56 1816.53 1177.23 879.204 863.515 837.289 798.476 741.044 708.11 690.001 654.97 643.7 595.637
threshold=-1.2893873515201937 -1.2893465385764882 -1.2919772756802959 -1.2918323997169956 0.7105720919083055 0.71096281092973379 -1.2880754117881934 11.782156869439092 -1.2901617987651888 -1.2889063846273254 -1.2869078819663027 0.71014022704803548 0.71054319661047816 0.71248237735821929 0.71181009563054232 23.300379165649247 0.71166239005858389 0.71134367625512873 0.71194545079294569 7.5000000000000009 8.0277901352250023 10.634266716019477 26.180012090685299 18.500000000000004 -1.2893167111722794 13.500000000000002 -1.2915911173222343 -1.2913816597024994 -1.2905469584378415 5.5924124901865282
decision_type=6 6 6 6 6 6 6 6 6 6 6 6 6 6 6 6 6 6 6 6 6 6 6 6 6 4 6 6 6 6
left_child=1 2 11 -2 5 -4 26 20 9 25 22 -1 21 15 -15 16 18 -18 19 28 -7 -6 -10 29 -24 -5 -3 -17 -14 -21
right_child=3 6 4 8 12 7 -8 -9 10 -11 -12 -13 13 14 -16 27 17 -19 -20 23 -22 -23 24 -25 -26 -27 -28 -29 -30 -31
leaf_value=0.16095646619796755 1.7570768618583679 0.50841551060261936 -0.018246628466457034 0.38290164407455562 -0.02265202926411744 0.090160649965481343 0.52182424142379169 0.48654296149810156 -0.10547451457806996 0.48286669499583268 0.96198830157518389 0.80252862840890882 -0.085812314155954306 0.16616818636764574 -0.09039954692125321 0.20083014254712245 0.12953048446170792 -0.03303381084564469 0.14386791901479504 -0.060422023500219871 0.24566139513102009 0.14198669950871137 0.38831404785315199 -0.055736882555030579 0.10702920778454326 0.22259488565240071 0.22125133178171869 -0.073436813147152988 0.062917809301104993 -0.017093503788894456
leaf_count=20 10 23 611 99 124 253 129 63 35 291 10 40 1732 137 62 22 363 471 132 951 142 223 30 3101 107 227 233 2223 76 4804
internal_value=0 -0.345844 -0.52233 6.81214 -0.569957 1.4443 6.78236 3.85794 6.45758 7.42141 3.19009 11.7734 -0.71927 -0.778008 1.72465 -0.813902 -0.697872 0.754452 -0.810065 -0.855709 2.92124 1.66307 2.25697 -0.705552 3.37249 5.42554 4.94102 -1.41498 -1.59121 -0.485069
internal_count=16744 15935 15550 809 15490 1069 385 458 799 617 182 60 14421 14074 199 13875 11630 834 10796 10664 395 347 172 8856 137 326 256 2245 1808 5755
shrinkage=0.05


Tree=28
num_leaves=31
num_cat=0
split_feature=0 10 10 12 10 14 0 12 10 16 10 16 13 12 0 14 10 0 10 12 16 12 8 10 12 16 13 12 8 0
split_gain=35601.1 11609.1 11122.3 5516.92 5573.16 2632.52 3226.39 2376.22 2688.42 2069.42 1869.03 1221.73 2209.72 1204.91 1274.36 1081.1 1040.61 936.79 922.219 798.446 775.597 748.085 663.104 639.423 598.719 576.195 562.736 746.773 548.198 546.936
threshold=-1.2893873515201937 42.724953534531458 26.37966552375228 30.582068629518435 39.890534679020853 8.0210550425901257 -1.2906379053890678 23.625540160167731 11.184328154374398 0.82071745286732534 47.446292945442721 1.9995755504896038 19.246125000098726 15.238068444835212 -1.2908080148036964 13.910754476380374 38.561245574737278 -1.2915911173222343 34.594764658114222 6.7413906127840546 -2.6147328265054695 17.441552866983283 5.5000000000000009 40.656748063252614 14.168200534951906 0.52198661619749875 11.736407448358198 18.672429800493905 4.5000000000000009 -1.2916395868540738
decision_type=6 6 6 6 6 6 6 6 6 4 6 4 6 6 6 6 6 6 6 6 6 6 4 6 6 6 6 6 6 6
left_child=2 7 -1 4 5 29 15 19 9 -9 -5 12 -12 23 22 18 24 -17 -7 -2 -19 -16 -15 -6 -8 -21 -20 -28 -22 -4
right_child=1 -3 3 10 13 6 16 8 -10 -11 11 -13 -14 14 21 17 -18 20 26 25 28 -23 -24 -25 -26 -27 27 -29 -30 -31
leaf_value=0.46113475354249811 0.016167002141010019 2.016656624674797 0.15682705070187408 0.15025071976024931 0.13008706545507587 -0.017073346499581726 -0.15681176222567483 -0.16727858718513744 0.45999285290729158 0.62779869857159531 0.47063745781779281 0.2683197085062663 1.4182133793830873 -0.023678735707772389 0.010969951210979455 0.57108090639114384 0.27025162166073208 0.59516716370215783 -0.091655523507367997 0.092035324849626607 0.24529862727820129 0.13527041554415623 -0.050433188839383629 -0.080588061873931818 0.063036777624269819 0.27118217436601694 0.086073546694201794 0.24649847139077014 0.09290608907495404 -0.033565791092902829
leaf_count=121 40 10 41 41 37 98 127 32 288 11 16 15 10 9072 519 20 21 13 21 51 199 158 3113 1396 41 377 129 166 84 477
internal_value=0 6.47153 -0.328552 -0.401633 -0.444277 1.43306 2.44932 6.04773 8.09854 0.722266 7.77986 12.5547 16.7018 -0.632996 -0.536069 3.40278 -1.23337 4.79603 2.33934 4.59727 4.34836 0.79959 -0.610278 -1.50297 -2.06316 4.9967 3.17073 3.52693 4.00131 -0.369922
internal_count=16744 809 15935 15814 15732 1437 919 799 331 43 82 41 26 14295 12862 730 189 316 414 468 296 677 12185 1433 168 428 316 295 283 518
shrinkage=0.05


Tree=29
num_leaves=31
num_cat=0
split_feature=15 15 15 14 15 15 15 1 15 16 0 14 5 5 15 8 0 11 5 5 5 8 8 5 3 5 5 5 5 3
split_gain=72500.5 15585.4 13648 6150.39 2676.54 1629.89 1444.78 3062.73 1444.69 1360.33 894.188 749.058 711.128 859.129 690.861 666.714 600.343 578.529 566.127 564.107 696.865 688.245 517.635 685.454 496.008 428.309 436.848 392.76 525.671 392.714
threshold=5.8370476847799599 2.0984604145229824 13.388028444753868 40.911728104864792 3.2662243722721542 1.2116993538600349 0.033323084043549313 0.71149414485671814 9.1822699767265572 1.6860136116119413 -1.2879616282306199 28.311909014082278 6.5000000000000009 19.500000000000004 17.544752140118248 4.5000000000000009 -1.2918217470726352 44.40979135554403 7.5000000000000009 7.5000000000000009 18.500000000000004 4.5000000000000009 4.5000000000000009 18.500000000000004 0.71025527560712687 6.5000000000000009 18.500000000000004 19.500000000000004 5.5000000000000009 0.71156741507620891
decision_type=6 4 6 6 6 6 6 6 6 6 6 6 6 6 6 4 6 6 6 6 6 6 4 6 6 6 6 4 6 6
left_child=1 5 8 14 10 6 7 9 25 -1 11 16 -6 15 -4 -14 -3 24 -7 -18 21 -21 23 29 -16 -2 -27 28 -10 -20
right_child=2 4 3 -5 12 18 -8 -9 27 -11 -12 -13 13 -15 17 -17 19 -19 22 20 -22 -23 -24 -25 -26 26 -28 -29 -30 -31
leaf_value=-0.25046913644363145 0.094069005599690239 0.35760526602918452 0.36282593625421239 1.6250655881383205 -0.00094121328714958676 -0.10956130314908825 -0.1131473998015339 0.85074646770954132 0.15592702819806775 0.33614724795023604 0.4609055528044701 -0.40719926928480465 0.11759788296065005 0.022621498699744464 0.49608916748653747 0.050249077420220445 -0.05798660720818042 0.45801898366357441 -0.0093997064124982498 0.034488935259710779 -0.038624194391939697 -0.035027896641573207 -0.081531140498426038 -0.082579223952051431 0.98288430094718926 0.19620210587137463 0.12554244408836182 0.18457153370269599 0.29652653525322253 -0.068971522465451504
leaf_count=29 268 11 227 11 455 622 4000 12 82 15 10 12 870 717 11 637 565 371 1149 1285 909 493 1427 737 10 515 381 195 353 365
internal_value=0 -0.856125 5.05764 9.06184 0.378753 -1.73751 -2.19232 2.8527 3.65148 -1.00973 -0.226277 -0.255115 1.12064 1.35376 8.64531 1.7826 -0.226103 9.44953 -1.3085 -0.25106 -0.0599915 0.304269 -1.15922 -0.86038 14.5579 2.99117 3.32312 4.87147 5.40045 -0.475229
internal_count=16744 14320 2424 630 5964 8356 4056 56 1794 44 3285 3275 2679 2224 619 1507 3263 392 4300 3252 2687 1778 3678 2251 21 1164 896 630 435 1514
shrinkage=0.05


Tree=30
num_leaves=31
num_cat=0
split_feature=14 14 1 3 1 16 3 16 1 1 3 14 1 3 1 1 3 14 1 3 14 6 1 3 14 16 14 14 5 14
split_gain=22207.6 6415.17 6968.84 5532.72 3954.4 1874.69 2745.11 2245.94 1716.89 1507.86 1413.94 1380.46 5214.51 1307.43 3795.97 1337.72 2008.33 1285 1536.14 1351.73 1177.56 1171.21 1170.6 1116.19 971.597 949.682 915.315 910.833 891.606 890.769
threshold=21.041599925892079 44.134044057648246 0.71207324923575588 0.71037894615024744 0.71096281092973379 0.67779791974679904 0.70949980338489871 -1.8982359500799457 0.71053034685821848 0.7105932307494579 0.71176968216100045 18.327480345131821 0.7116814649498916 0.71077479175677405 0.71112845954953663 0.71077995163138608 0.71125505956985624 7.1201780051719448 0.71107493001162603 0.71094490117140297 9.5344222522230293 21.500000000000004 0.71024948323175596 0.71179914338055938 8.1660857291821376 -2.9799152027716858 4.38061387329501 11.716767514364031 6.5000000000000009 15.403095075717536
decision_type=6 6 6 6 6 6 6 6 6 6 6 6 6 6 6 6 6 6 6 6 6 6 6 6 6 6 6 6 6 6
left_child=3 2 5 4 22 6 7 -2 26 -7 -4 13 -13 14 -10 16 -15 -17 20 -20 -19 -11 -1 -23 -16 -8 -5 -6 -21 -24
right_child=1 -3 10 8 27 9 25 -9 11 21 -12 12 -14 15 24 17 -18 18 19 28 -22 23 29 -25 -26 -27 -28 -29 -30 -31
leaf_value=-0.10165421577295711 0.46330464297691282 1.2515275561064483 0.4822262866930529 -0.011990626995095316 0.20129183180297594 0.40902260267959839 -0.35891233086586 -0.31855792760849 -0.046798707259395111 0.056926986357340448 -0.10239766131017368 0.18900373601955964 -0.08137298428137002 -0.034009183445741657 0.07395565504088214 -0.074885174375175487 0.12833404003648394 -0.007297164263616273 0.070764407455586029 -0.08592522006715482 0.11473305898441657 0.22792229216013637 0.064539542701812974 0.80441797077655797 0.21407119398457664 0.13653058314571778 0.14098761295107937 0.39360909066924998 -0.033664029245444149 0.45110779069364071
leaf_count=119 113 15 11 162 140 291 10 10 922 65 174 333 384 480 423 1843 316 596 289 913 296 28 219 12 175 300 247 110 7732 16
internal_value=0 4.50066 4.19696 -0.294698 2.67327 5.43543 3.99713 7.99477 -0.41333 7.00811 -1.35272 -0.469559 0.883989 -0.538955 0.336806 -0.645746 0.608773 -0.731323 -0.587578 -0.712534 0.663943 3.75907 0.522883 8.01742 2.29919 2.41097 1.6079 5.71823 -0.783667 1.81718
internal_count=16744 1029 1014 15715 604 829 433 123 15111 396 185 14702 717 13985 1520 12465 796 11669 9826 8934 892 105 354 40 598 310 409 250 8645 235
shrinkage=0.05


Tree=31
num_leaves=31
num_cat=0
split_feature=0 2 10 2 2 16 0 12 10 14 12 1 14 12 2 10 1 2 1 10 0 14 1 2 10 10 16 16 10 8
split_gain=26485.9 13732.4 10055.3 6676.87 2623.2 2461.19 1844.5 1832.96 1660.38 1305.94 1310.4 1491.08 1590.43 1052.83 1536.1 1395.01 2077.23 1482.28 947.547 871.925 799.854 777.68 733.114 2069.29 726.623 724.76 707.168 664.524 1500.17 623.533
threshold=-1.2893873515201937 -1.2893465385764882 42.724953534531458 -1.2918626265953679 -1.2904029480018955 2.3173407132404358 -1.2891481996543046 19.114428083572196 39.988523504086594 6.3357467952065756 14.408807010836783 0.71102020205122496 15.175544241464884 15.238068444835212 -1.2906531519863085 45.717466408989573 0.71164740977745222 -1.2913837902313716 0.71093135233935711 38.593967713209246 -1.2913542291432718 26.180012090685299 0.71074652895970558 -1.2914040302556564 36.562357519581084 41.74227168697545 -3.1144588702023062 2.0669839660370006 9.7919266165684515 5.5000000000000009
decision_type=6 6 6 6 6 4 6 6 6 6 6 6 6 6 6 6 6 6 6 6 6 6 6 6 6 6 6 4 6 4
left_child=1 3 4 5 6 -1 -2 -3 9 -5 19 24 -13 -10 15 16 22 -18 -7 -11 -16 -6 23 -15 -12 -25 -19 28 -23 -24
right_child=2 7 -4 8 21 18 -8 -9 13 10 11 12 -14 14 20 -17 17 26 -20 -21 -22 27 29 25 -26 -27 -28 -29 -30 -31
leaf_value=0.70230004939922075 0.22087792260825734 0.19926473535182565 1.8548132802546027 -0.054104147473344577 -0.091133817622349386 -0.29873506709933267 0.39557755531509592 0.42679952924018327 -0.0694852317022423 -0.1029816864126521 -0.016310228935233404 0.14850464096464414 0.60055346205120996 -0.057058938853175145 0.18025029916089119 -0.088635126440339759 0.16696463689133897 0.4338267315924168 0.32977061967055005 0.14341957465462063 0.024663049777755366 -0.1744157725211346 -0.026059604071200476 0.024265405662196433 0.1144035743485967 0.14229963573474408 0.010676423134278712 0.49399214662038365 0.21169293894660923 -0.055524009978472226
leaf_count=43 294 247 10 333 42 10 311 138 1415 164 269 266 21 557 123 856 201 10 15 46 252 33 7031 268 176 253 827 13 106 2414
internal_value=0 -0.283387 5.58193 -0.429461 5.1875 9.45827 6.21364 5.61645 -0.472889 0.62044 1.22229 1.85414 3.63163 -0.57101 -0.480449 -0.54068 -0.449458 0.900338 1.56737 -0.980162 1.51391 1.98742 -0.582604 0.198944 0.707756 1.63167 0.31464 3.04021 2.40054 -0.671805
internal_count=16744 15935 809 15550 799 68 605 385 15482 1275 942 732 287 14207 12792 12417 11561 1038 25 210 375 194 10523 1078 445 521 837 152 139 9445
shrinkage=0.05


Tree=32
num_leaves=31
num_cat=0
split_feature=15 15 15 12 15 12 15 15 15 2 3 2 3 14 2 16 16 16 15 4 12 12 14 14 1 16 15 14 2 16
split_gain=55975.8 12626 10752.9 6319.73 2154.54 1239.2 1335.56 983.118 829.851 903.414 728.14 724.162 681.289 658.728 896.633 495.195 640.199 607.766 487.335 1005.16 751.624 867.321 726.369 467.276 458.883 420.488 419.778 401.363 377.664 376.754
threshold=5.5974558720640539 2.0081397261552634 12.034345849616981 39.683342381355885 3.177890731260788 33.19165117393122 1.2116993538600349 7.8812655017666193 16.89511962904405 -1.2920341341695691 0.71025527560712687 -1.2881750140129624 0.71267625548557711 28.311909014082278 -1.2918335981394862 -0.7440118879820552 -0.19182388031870831 2.4866451497398607 0.1902372204349273 1.5000000000000002 19.994010213989075 17.568257453926932 6.8210510383012588 12.255254607749729 0.71045804203462282 2.3985105402420706 0.71734720983456068 19.261807896342933 -1.2907657371213916 -0.10777909505804535
decision_type=6 4 6 6 6 6 6 6 6 6 6 6 6 6 6 4 6 6 6 6 6 6 6 6 6 6 6 6 6 6
left_child=1 5 7 8 11 6 18 28 -4 10 -10 13 -9 14 -3 -16 24 -18 19 20 21 -1 -21 -24 -17 29 -20 -6 -2 -8
right_child=2 4 3 -5 27 -7 25 12 9 -11 -12 -13 -14 -15 15 16 17 -19 26 22 -22 -23 23 -25 -26 -27 -28 -29 -30 -31
leaf_value=-0.085327548086643223 0.13808455664064673 0.46185871243476867 0.29576581738268337 1.5668294299732555 0.052478146176406337 0.47593890666961675 -0.065747997678932413 0.20170195670347782 0.45415875315666182 0.38749316570943854 1.0320514547824862 0.41387057393789295 0.035706176706798265 -0.36776439857024412 0.018399506163256737 0.2590108660134402 0.0181276432553375 -0.041998025534096463 -0.12997566342488329 0.57414455056190494 -0.24368470764972947 0.43385497169061149 -0.10121162012219427 0.30257905996762791 -0.066421742921914259 -0.093526796055861172 -0.093921870088307449 -0.04511216068015942 0.072279505440073596 -0.030160529972641015
leaf_count=30 649 10 300 11 2572 10 1979 806 12 393 10 10 67 13 947 11 1002 725 1139 10 44 11 16 13 765 772 2784 110 329 1194
internal_value=0 -0.779814 4.28701 7.54876 0.295747 -1.60846 -1.62238 3.00768 7.1828 8.09905 14.3367 -0.223069 3.77925 -0.247545 -0.22084 -0.248254 -0.481408 -0.142266 -2.02607 -0.0732196 -2.00225 1.07931 4.13107 1.59596 -1.23617 -1.20826 -2.08779 0.969511 2.31895 -1.04713
internal_count=16744 14167 2577 726 6165 8002 7992 1851 715 415 22 3483 873 3473 3460 3450 2503 1727 4047 124 85 41 39 29 776 3945 3923 2682 978 3173
shrinkage=0.05


Tree=33
num_leaves=31
num_cat=0
split_feature=11 12 12 2 2 3 2 14 14 16 2 16 16 5 8 5 12 3 5 16 12 12 14 3 3 14 14 14 3 3
split_gain=20177.8 8864.09 6323.86 5266.58 3249.66 2931.23 1840.17 1708.41 1499.41 1455.44 1271.73 1088.94 1088.6 901.122 957.012 1244.55 779.241 778.352 693.461 612.687 1043.96 590.354 583.134 522.715 519.16 945.279 938.736 528.023 1261.23 1008.16
threshold=44.066229323891619 39.683342381355885 20.805254679430544 -1.2918626265953679 -1.2901978845979594 0.71056816374569765 -1.2909777247441618 33.033996623079496 8.9423931797147471 2.3173407132404358 -1.2893338885613104 2.5870381539705267 2.0286239416450322 7.5000000000000009 4.5000000000000009 18.500000000000004 29.316334384318555 0.71059562759443906 13.500000000000002 -2.3457433865114354 18.381551194834419 25.61933121143505 9.3458881860107947 0.71164717675085687 0.71152314002308636 13.219309165690005 17.711757749939469 8.4373389431964991 0.71126571221421664 0.71090285651569329
decision_type=6 6 6 6 6 6 6 6 6 4 6 4 4 6 4 6 6 6 4 6 6 6 6 6 6 6 6 6 6 6
left_child=3 2 6 9 5 8 -2 -4 21 18 17 19 16 -7 15 24 -9 -8 -1 -10 -21 -5 -13 -12 26 -26 27 28 -15 -29
right_child=1 -3 7 4 -6 13 10 12 11 -11 23 22 -14 14 -16 -17 -18 -19 -20 20 -22 -23 -24 -25 25 -27 -28 29 -30 -31
leaf_value=0.42103164445919294 0.27352408035575881 1.674241033792496 0.35419411496700204 0.057405857442493741 0.15492478366315698 -0.05551589719167032 0.37071371482951299 0.20429692226462068 0.17030239702936839 0.11991730895638467 0.12070292469265093 0.66563852310180671 0.58529484808444987 -0.023304094554327325 -0.038790545802957238 -0.03865885879748944 -0.13718953832983971 -0.0085658978330720153 0.82550439207177417 0.2248436571444784 -0.11304300542582164 -0.033337234517266216 0.25833528374564158 0.33967021787539126 0.063943499932419726 -0.041886840697870784 0.3664430800237154 0.26814097653735769 0.13602344845659542 0.025869067689061043
leaf_count=24 113 10 433 453 268 2284 14 32 123 25 185 10 10 1336 4670 2436 35 408 19 35 66 297 73 32 263 1070 19 44 137 1820
internal_value=0 3.82862 3.59362 -0.314762 -0.353528 -0.41465 1.75007 6.31196 1.19157 8.46685 1.09216 3.05347 1.97112 -0.535239 -0.42388 -0.193211 0.518169 0.0803368 11.995 1.90678 0.0809286 0.429432 6.14816 3.05986 0.108089 -0.420132 0.317898 0.277979 -0.169709 0.631759
internal_count=16744 1272 1262 15472 15404 15136 752 510 1057 68 639 307 77 14079 11795 7125 67 422 43 224 101 750 83 217 4689 1333 3356 3337 1473 1864
shrinkage=0.05


Tree=34
num_leaves=31
num_cat=0
split_feature=0 12 12 13 12 12 16 16 12 13 16 12 0 12 0 12 16 5 12 13 16 0 0 13 16 13 7 12 13 16
split_gain=19772.2 5798.8 3181.78 1838.82 2942.34 1453.71 1727.94 1096.35 1395.82 1289.67 949.657 1178.92 2123.46 1165.82 1380.18 899.794 819.422 812.459 737.808 1059.23 874.374 716.267 663.557 820.327 646.672 638.617 636.462 606.292 605.13 637.067
threshold=-1.2893873515201937 38.394866762248249 30.582068629518435 29.562202069603199 21.779664949019246 13.531647452015564 0.52000232248632894 2.6585909033397761 34.489088100567471 22.393953345212786 -0.75515769880709083 16.156591494151204 -1.2908880427944533 12.521560012650538 -1.2905948287584357 29.316334384318555 -0.24374197143682549 7.5000000000000009 31.488419885066428 40.143558952533361 1.5422379514481808 -1.2897079961154392 -1.2909811202745518 27.699504327869537 1.7677557034877334 44.854044329076139 3.5000000000000004 17.154523887236945 30.405234713410035 1.8027575305996393
decision_type=6 6 6 6 6 6 4 4 6 6 4 6 6 6 6 6 6 6 6 6 6 6 6 6 6 6 6 6 6 6
left_child=2 5 3 10 -5 28 15 9 -9 24 13 16 17 14 -1 25 -12 -13 19 -8 -20 -18 23 -15 -4 -7 -19 -14 29 -2
right_child=1 -3 7 4 -6 6 18 8 -10 -11 11 12 27 22 -16 -17 21 26 20 -21 -22 -23 -24 -25 -26 -27 -28 -29 -30 -31
leaf_value=0.16716058841702763 0.25551206386089326 1.437764987051487 0.077771675929596482 0.016302656508769563 0.3329928438489636 0.065115679291387396 0.32523309061998756 0.31015990790600573 -0.45259713128209117 0.8402572595156157 -0.11135285450129349 -0.059878570484661102 0.012401987234890511 0.0005470814745476021 -0.15915686961932063 -0.17581252917790643 -0.042817135401855923 -0.032533235545706016 0.89660161286592466 -0.11877834733043398 0.34544311645958159 0.3050496788819631 -0.065650311027912744 0.22279087014585022 0.43740068147408551 0.47424617750304088 -0.0026502913810774222 0.1065612481299977 0.037975096058928307 0.097030864469707018
leaf_count=192 150 10 22 311 96 30 335 15 10 13 573 1356 299 3846 39 26 1156 3579 12 14 18 15 388 42 29 14 3554 400 90 110
internal_value=0 4.82286 -0.244851 -0.278342 1.82002 4.52333 5.71444 5.71806 0.101142 7.91217 -0.333658 -0.492946 -0.349844 0.0527033 2.24136 1.14908 -1.24686 -0.48781 6.55765 6.14843 11.3181 -0.767222 -0.0655333 0.0589573 5.64533 3.90587 -0.352883 1.32569 2.99531 3.76925
internal_count=16744 809 15935 15846 407 799 449 89 25 64 15439 10932 9188 4507 231 70 1744 8489 379 349 30 1171 4276 3888 51 44 7133 699 350 260
shrinkage=0.05


Tree=35
num_leaves=31
num_cat=0
split_feature=15 15 15 12 15 15 15 15 3 4 5 15 3 5 5 12 5 14 11 12 5 5 5 5 11 5 15 3 3 15
split_gain=45068.1 10416.8 8615.34 5036.77 1313.53 1174.5 1012.41 1126.46 1903.83 1004.9 681.758 671.438 559.115 502.215 459.073 737.851 481.928 451.892 437.688 432.69 415.703 630.775 405.214 401.863 380.918 358.507 309.435 297.334 280.827 272.203
threshold=4.575683786869722 11.446938246111278 1.963860821420542 39.683342381355885 6.8303765125984404 3.016702919747464 1.2116993538600349 0.062892259073568532 0.71149351235595926 1.5000000000000002 6.5000000000000009 16.89511962904405 0.71259033525090831 18.500000000000004 19.500000000000004 32.311566637689502 7.5000000000000009 17.116175975968279 48.189512636043467 22.250112798672181 7.5000000000000009 19.500000000000004 7.5000000000000009 19.500000000000004 43.372925896729114 19.500000000000004 0.71734720983456068 0.71156927928897196 0.71115059707609796 8.918690013303932
decision_type=6 6 4 6 6 6 6 6 6 6 6 6 6 6 4 6 6 6 6 6 4 4 6 4 6 6 6 6 6 6
left_child=2 4 6 11 10 14 7 8 9 19 -2 -3 23 -12 15 16 -4 -18 -13 -1 -7 24 -8 29 -22 27 -9 28 -24 -6
right_child=1 3 5 -5 12 20 22 26 -10 -11 13 18 -14 -15 -16 -17 17 -19 -20 -21 21 -23 25 -25 -26 -27 -28 -29 -30 -31
leaf_value=0.011780540148417156 0.014351142564516035 0.25779669804515509 -0.050513570126921842 1.3856562817638571 0.15435380067242985 -0.017991856451855477 -0.096726287666386732 -0.11709277670120355 0.56626417163540343 0.30987465302149458 0.12864849541965415 0.44194566777141975 0.014157080698265313 0.059881318621911796 -0.045260046675756546 0.42686084270477292 0.014224975847871324 -0.068840608972435199 0.32221678541038945 -0.31896321827715096 0.068835376928275877 0.0046125093619195758 -0.054686987967245651 0.1157988217448771 -0.10096131235580236 -0.078540613234350104 -0.086695170126004931 -0.072145544091587355 -0.014965934888694616 0.21314381805885799
leaf_count=18 294 357 449 11 432 327 533 1200 17 15 641 101 68 454 812 10 1834 180 314 22 1214 690 732 334 34 807 2784 557 1140 363
internal_value=0 3.26892 -0.8234 6.46458 2.30132 0.12961 -1.49934 -1.84616 2.07485 -0.784371 1.63958 6.16181 3.0692 2.00274 -0.252456 -0.0381293 -0.072946 0.136021 7.02711 -3.40257 0.683733 0.859815 -1.12611 3.237 1.28419 -0.99295 -1.91702 -0.800964 -0.609958 3.62395
internal_count=16744 3369 13375 783 2586 5550 7825 4056 72 55 1389 772 1197 1095 3285 2473 2463 2014 415 40 2265 1938 3769 1129 1248 3236 3984 2429 1872 795
shrinkage=0.05


Tree=36
num_leaves=31
num_cat=0
split_feature=0 2 10 2 2 16 16 12 10 14 12 1 14 1 5 5 5 14 1 1 5 10 10 0 10 12 14 0 14 16
split_gain=16118.5 8479.92 8353.94 4184.35 1826.52 1617.77 1152.49 1147.49 1022.6 914.648 1031.83 1243.96 1207.94 841.557 798.425 823.191 765.156 746.262 1270.97 1050.82 715.433 714.614 633.33 759.7 612.933 608.599 544.616 492.261 479.108 486.644
threshold=-1.2893873515201937 -1.2893465385764882 42.724953534531458 -1.2918453160482823 -1.2904029480018955 2.3173407132404358 1.7358642244978266 19.114428083572196 39.988523504086594 6.120265118502167 14.408807010836783 0.71122030531763081 15.175544241464884 0.71093135233935711 7.5000000000000009 18.500000000000004 13.500000000000002 14.005563651205319 0.71158136338241829 0.71128791631980504 4.5000000000000009 38.593967713209246 35.443422397807247 -1.2907054831017286 41.53975189417352 9.8705028510279167 11.666475091989577 -1.2914722737585895 26.180012090685299 2.0669839660370006
decision_type=6 6 6 6 6 4 6 6 6 6 6 6 6 6 6 6 4 6 6 6 4 6 6 6 6 6 6 6 6 4
left_child=1 3 4 5 6 16 25 27 9 -5 21 22 -13 -7 -10 17 -1 18 24 -19 -6 -11 -12 -24 -16 -2 -20 -3 -22 -30
right_child=2 7 -4 8 20 13 -8 -9 14 10 11 12 -14 -15 15 -17 -18 19 26 -21 28 -23 23 -25 -26 -27 -28 -29 29 -31
leaf_value=0.36098481290973727 0.1623575908688272 0.35373060711260357 1.6539692306518554 -0.051854880807296291 -0.34578512966632846 -0.2492856474593281 0.14055317012495117 0.33626872431216898 -0.049477364379372564 -0.099128782774730612 -0.026936273432900788 0.15718846628311234 0.64408472957355645 0.29143709441026056 -0.040078468767170208 -0.036091635558991073 0.77986778251826772 0.22636690951491656 0.15168759049963415 -0.039109224738890565 -0.067029122989147136 0.12395422301538613 0.064924219465675823 0.39754692005614439 0.0020232626691730877 0.31818158334099067 0.04128829977126855 0.13097137348326646 0.10296014042035502 0.43559375802675887
leaf_count=24 77 28 10 301 10 12 190 138 2291 164 213 142 14 18 1079 3897 20 38 161 2004 39 46 376 18 4366 338 366 219 133 12
internal_value=0 -0.221074 4.35453 -0.335862 3.99501 7.16633 4.85131 4.41518 -0.371735 0.486724 0.958122 1.4985 4.01769 1.50296 -0.448743 -0.344723 11.0277 -0.161345 0.0171538 -0.683378 1.32462 -1.00526 0.851068 1.6024 -0.126395 5.78539 1.50031 3.12447 1.77247 2.60977
internal_count=16744 15935 809 15550 799 74 605 385 15476 1274 973 763 156 30 14202 11911 44 8014 5972 2042 194 210 607 394 5445 415 527 247 184 145
shrinkage=0.05


Tree=37
num_leaves=31
num_cat=0
split_feature=15 15 15 10 15 15 12 15 5 15 0 14 3 0 10 15 4 6 10 12 12 5 5 14 5 5 5 10 6 5
split_gain=38411.1 8356.88 7733.51 4830.29 1144.46 1057.43 910.126 911.509 602.894 560.379 509.741 917.563 504.337 469.713 464.719 455.299 836.188 959.135 1643.09 598.652 791.609 440.759 718.083 547.184 433.16 423.661 369.048 341.965 312.405 343.132
threshold=4.575683786869722 11.446938246111278 1.9153150421962388 55.977181925168253 2.6847461950055007 6.8303765125984404 33.038563274447036 1.0878571964080568 6.5000000000000009 17.544752140118248 -1.2888457977125263 26.797369060160005 0.71259033525090831 -1.2918102289009206 50.432067875711859 0.1902372204349273 1.5000000000000002 12.500000000000002 42.961339579299391 19.994010213989075 17.721957828064088 19.500000000000004 7.5000000000000009 17.325725815688866 18.500000000000004 7.5000000000000009 19.500000000000004 34.641682973494319 29.500000000000004 5.5000000000000009
decision_type=6 6 4 6 6 6 6 6 6 6 6 6 6 6 6 6 6 6 4 6 6 4 6 6 6 6 6 6 6 4
left_child=2 5 6 9 10 8 7 15 -2 28 11 13 27 -4 -11 16 19 -18 -19 20 -1 22 -6 -24 -10 -9 -27 -7 29 -3
right_child=1 3 4 -5 21 12 -8 25 24 14 -12 -13 -14 -15 -16 -17 17 18 -20 -21 -22 -23 23 -25 -26 26 -28 -29 -30 -31
leaf_value=-0.073855562087508944 0.01427210240757891 0.088928465156747807 0.32486833661794662 1.2894935508569083 -0.017335676621946388 0.05526413789061322 0.40580572605133058 -0.094810058395107033 0.12142860748762972 0.31137707763678069 0.32209769798950716 -0.49732075072824955 0.0096998404999099237 -0.018628576619582612 0.65681270241737366 -0.095021775227938032 -0.073441590865453085 0.84583212679082698 -0.039853189587593069 -0.21618207179356452 0.43791305899620059 -0.0028958661435913632 0.062050827320520086 -0.045498476655711786 0.057558927986240599 -0.040943021871634275 -0.077546321268371979 0.1579849871488308 0.45116291865706448 0.24270172363818077
leaf_count=31 294 41 10 12 446 88 10 618 641 385 11 10 68 2690 10 3187 18 11 10 43 10 879 1574 128 454 2771 918 1041 16 319
internal_value=0 3.01785 -0.760161 5.88017 0.115778 2.15119 -1.4203 -1.43282 1.55743 5.57029 -0.35496 -0.382549 2.84019 -0.347127 6.40245 -1.82753 0.0613743 3.88906 8.48154 -1.71577 1.01932 0.53893 0.78317 1.07925 1.89895 -1.12948 -1.00103 2.99957 4.69609 4.50377
internal_count=16744 3369 13375 783 5748 2586 7627 7617 1389 771 2721 2710 1197 2700 395 3310 123 39 21 84 41 3027 2148 1702 1095 4307 3689 1129 376 360
shrinkage=0.05


Tree=38
num_leaves=31
num_cat=0
split_feature=15 15 15 15 15 15 15 15 15 0 11 2 3 15 6 15 16 2 2 16 16 11 8 16 11 16 3 0 3 2
split_gain=34666 7559.3 6982.78 4618.3 967.883 872.392 902.24 781.883 690.101 461.796 558.385 458.612 443.799 831.691 1371.26 588.041 417.27 401.443 398.137 396.965 620.19 390.995 384.541 342.171 352.925 305.839 286.36 266.745 261.682 254.052
threshold=4.575683786869722 10.76387463781345 1.963860821420542 25.143049396920727 3.016702919747464 0.001734691362565704 1.108969576825938 6.8303765125984404 17.544752140118248 -1.2879616282306199 52.273805534808723 -1.2920341341695691 0.70978346333050568 0.053810985912090888 22.500000000000004 0.016472614948860122 2.3979465288785708 -1.2908121427033861 -1.2918311347154778 -0.10283118128962131 -0.88747186497721398 50.239136527958863 4.5000000000000009 -2.2022015717792596 37.166364250678193 -2.3865476411239146 0.71343805271539418 -1.2916727432096453 0.71238923329909376 -1.2905949619164903
decision_type=6 6 4 6 6 6 6 6 6 6 6 6 6 6 6 6 4 6 6 6 6 6 4 6 6 6 6 6 6 6
left_child=2 7 5 8 9 -1 12 17 23 10 18 -10 -7 14 15 -14 19 -2 -4 20 -8 28 29 24 -3 -6 -25 -19 -9 -20
right_child=1 3 4 -5 25 6 16 21 11 -11 -12 -13 13 -15 -16 -17 -18 27 22 -21 -22 -23 -24 26 -26 -27 -28 -29 -30 -31
leaf_value=0.35958008368810024 0.092475400800660676 0.21496473595499996 0.3048160882294178 1.2439021249612174 0.098196000291931415 -0.41916481852531434 -0.03364444327875462 0.14302518745056667 0.56773607819341121 0.32889274120330814 -0.36738635917956181 0.29423066943106962 -0.25293427515361039 -0.088242996581295016 0.49985792376101018 0.2112867360765284 -0.083945445469496949 0.25823999947080245 0.0059242679755906018 -0.023223691712666764 -0.087053126703259875 -0.023195705488324166 -0.032030708727330708 0.21045825019670802 0.52035797933737438 0.026840382401254744 -0.019594977902514594 0.028161411728886306 0.04665180728770793 -0.10838821370154619
leaf_count=12 943 20 10 12 162 10 1206 988 16 10 11 374 18 3381 16 11 835 13 1873 1345 991 40 1331 422 18 2103 14 433 76 50
internal_value=0 2.86696 -0.722153 5.39401 0.13583 -1.33069 -1.34378 1.979 5.1234 -0.211022 -0.231751 6.10903 -1.72743 -1.708 2.56403 -1.53701 -1.04261 1.47956 -0.207769 -0.892607 -1.15471 2.60737 -0.227143 4.31244 7.19249 0.638879 4.06142 0.697355 2.72283 0.0590405
internal_count=16744 3369 13375 876 5550 7825 7813 2493 864 3285 3275 390 3436 3426 45 29 4377 1389 3264 3542 2197 1104 3254 474 38 2265 436 446 1064 1923
shrinkage=0.05


Tree=39
num_leaves=31
num_cat=0
split_feature=15 15 15 10 15 12 15 5 15 15 5 5 5 8 10 12 15 4 6 10 12 12 8 10 10 10 10 10 0 13
split_gain=31286 6822.22 6346.13 4294.27 1242.33 853.826 709.873 652.322 582.103 529.222 503.364 428.972 571.473 911.005 524.614 695.413 425.822 751.864 852.072 1462.21 542.18 716.911 417.85 393.831 412.103 384.678 383.173 379.146 364.766 363.609
threshold=4.575683786869722 10.76387463781345 1.7529264637111863 55.977181925168253 2.6272691892954403 33.038563274447036 7.1460536629686269 6.5000000000000009 17.544752140118248 0.89916306554465086 18.500000000000004 19.500000000000004 7.5000000000000009 4.5000000000000009 48.420844794730598 29.552768680983387 0.1902372204349273 1.5000000000000002 12.500000000000002 42.961339579299391 19.994010213989075 17.721957828064088 4.5000000000000009 39.141630232415508 45.356355581801473 36.369797598556708 38.23677555311761 46.016145965689056 -1.2905226570928947 37.061209903608777
decision_type=6 6 4 6 4 6 6 6 6 6 6 4 6 6 6 6 6 6 6 4 6 6 4 6 6 6 6 6 6 6
left_child=2 6 5 8 25 9 7 -2 -3 16 22 12 -6 14 15 28 17 20 -19 -20 21 -1 -9 -11 -25 -4 -10 -27 -14 -8
right_child=1 3 4 -5 11 -7 29 10 26 23 -12 -13 13 -15 -16 -17 -18 18 19 -21 -22 -23 -24 24 -26 27 -28 -29 -30 -31
leaf_value=-0.070844972710455631 0.009790180873985475 0.20548811140241843 -0.1483861932316233 1.1956232529133559 -0.014508946625894662 0.39409112453460698 0.13215949346649744 0.15237971459690933 0.27623041587518177 -0.14675074422792081 0.051471042645443235 -0.0056573329886477636 0.073535154970935698 -0.0070162763521663717 -0.29093082986772062 0.46879063302820384 -0.093709161644475514 -0.06896891494592032 0.79784774455157192 -0.037682482600212092 -0.20630140935265739 0.41619544684886933 0.074271908229953609 -0.051914404850824783 -0.10749732841488702 -0.014410596300818743 0.49586663927350733 -0.093675479929859071 -0.10301985144615174 -0.065033770538866525
leaf_count=31 325 469 58 12 472 10 951 382 374 124 500 928 1246 546 10 11 2107 18 11 10 43 10 311 4162 363 3026 21 159 30 24
internal_value=0 2.72361 -0.686045 5.12431 0.0238829 -1.35444 1.88005 1.45224 4.86336 -1.36787 1.79452 0.461625 0.69203 0.943578 1.39987 1.45596 -1.76854 0.0411154 3.6708 7.99952 -1.6441 0.958907 2.34654 -1.17568 -1.12747 -0.413859 5.75815 -0.367352 1.38768 2.54611
